10000 32
库尔比什里 0.62607102 0.66433445 0.42479325 -0.31958476 -0.27193605 -0.48624695 0.13405212 -0.05938277 -0.26143879 0.25716624 0.04572683 0.24418610 0.95200995 -0.12801698 -0.30943904 0.52483095 0.35682883 0.24301275 -0.31271945 -0.42089709 -0.52411092 0.01334922 -0.00978246 -0.24777296 -0.30409525 0.13702562 0.10844028 0.45885467 -0.39005709 -0.23711499 -0.24842824 0.15970396
固化剂 -1.75094203 0.49930024 -1.66940225 1.09144601 -0.22701521 -0.02606898 0.88574276 0.25791042 -0.00074246 0.86594024 0.04288991 -0.25500266 0.11014096 -0.00938122 0.20436819 0.15916025 0.32569083 0.22307696 0.49632343 -0.73781438 0.32978170 -0.24310372 -0.02170747 -0.43613898 0.14578397 0.54275257 -0.13784717 0.37481324 0.05705027 0.76457169 0.02998650 0.11297981
陈宪鑫 -0.38951031 -1.92872660 -0.23699648 0.97639188 1.08100445 0.16766245 -0.63853438 1.05700271 -0.02303027 -0.49450494 0.99879960 -0.69968433 -0.53905052 -0.12331475 0.17434501 0.28703134 -0.22896927 0.47785130 0.01162385 -0.71405013 -0.04016332 -0.74632715 0.56379091 -0.83834223 0.04413644 -0.12779052 -0.26638443 -0.29809775 -0.18928147 -0.11726896 0.10378782 0.29620505
郑楚辉 -0.22724276 -0.02443714 -0.62560179 -0.53692108 0.38398068 -1.11593591 -0.92357133 -0.94878501 0.81089986 0.18895097 0.10246488 -0.64040809 0.58944783 -0.12025366 0.42508340 -0.17880963 0.34191410 -0.03825334 0.08098895 0.12269769 0.53043521 0.28357284 -0.34758425 0.06142855 0.15495513 0.17950615 -0.00466409 0.35857372 -0.76300781 -0.14154577 -0.15201601 -0.38144623
控制重 -0.92781909 0.11906682 -0.40685624 0.27903301 0.42038246 0.76552383 0.61444556 -0.28494646 -0.28085166 0.00788614 0.23569404 0.73802975 -0.22836986 -0.57422175 -0.75926116 -0.47395137 0.55756676 -0.09257150 0.49153978 0.01452374 -0.39464816 0.89641149 -0.12489838 0.44024427 0.23294425 -0.14245788 0.17813695 0.50518297 0.74618379 0.09897010 -0.17824583 -0.43293636
于文 -0.41111177 -0.71554813 -0.52148853 0.42965561 -0.29999233 -0.28331317 -0.08463838 0.34912476 0.67380134 0.02254520 -0.05842364 0.15634127 0.19670817 -0.37471818 0.16905845 0.14400294 -0.24286081 0.13113658 0.35581747 0.00024189 0.41917692 0.79817633 0.61889855 0.46746457 -0.02452496 0.18417380 1.02396922 -0.10050550 0.35277063 0.49689852 0.24889362 0.14465615
刘戌年 0.27922365 -0.18372222 -0.76427504 -0.00029480 -0.37269123 -0.50412174 0.65767005 -0.29808136 -1.21270401 0.16037425 0.09359479 0.42506560 -0.82095147 -0.56864956 -0.16839130 0.03491055 -0.29069479 -0.07368270 0.08198256 -0.39345085 -0.79157446 0.25229331 -0.04177063 -0.11606541 -0.22990855 -0.01970473 0.28791999 0.19913762 0.28952394 -0.31002612 -0.01241614 0.28792551
团粒 -1.60998137 0.53747125 -1.10145050 -0.23532433 0.06967481 0.34817170 1.06822171 0.20176016 -0.74541236 0.58556736 1.38507093 0.61572627 0.43785890 0.59888117 0.29144668 -0.05608196 -0.65132033 -0.29456568 -0.27278965 -0.79783673 -0.22951148 -0.17164923 0.02050665 -0.86916481 -0.49275405 0.14297475 0.29849916 0.87747257 -0.27722925 0.25079149 0.17614549 -0.15875785
刘利军 0.19696876 -0.14052939 1.39391509 -0.07585764 0.84475735 -0.95821757 0.46926122 -1.08311020 0.67124962 -0.62121733 -0.24118069 0.17268715 -0.14076548 0.25821526 0.17597928 -0.53394890 -0.02598107 -0.50646357 0.70256499 0.26460013 0.24355999 -0.12266610 -0.25530136 -0.52650299 0.04275044 -0.63821429 0.58711361 0.06187608 -0.13994980 0.52938449 0.19134629 -0.19060254
因材 -1.32213920 0.41318719 0.33942363 0.39543909 -0.29947220 1.00953095 0.37138062 0.05534043 0.05739806 0.35881193 1.00172753 -0.28869604 0.48323477 0.02634233 0.54847097 0.27637325 0.17743172 -0.24776156 -0.26636029 0.20224033 -0.44239423 0.16408048 0.39678686 -0.00871530 -1.00977320 -0.12918571 -0.04143643 0.87269186 -0.08018304 -0.28864508 0.72579667 -0.17350444
束开泰 0.96804930 -0.48131536 -0.06411955 -0.22387703 -0.26688736 -0.31709480 0.52536992 -0.87442628 0.67926472 0.01863791 1.24942641 0.40564735 0.50866552 0.10190131 0.08044846 -0.10472739 -0.06433601 -0.29457013 -0.08150530 -0.04322654 -0.75507244 0.51151148 -0.70761125 -0.20841511 0.01182483 0.31448802 -0.05992198 0.42603862 0.12323352 -0.21331246 -0.33051244 -0.37172355
华陀 -0.51931419 -1.25161935 0.38048884 0.47830380 -1.43242372 0.50104710 0.11714946 -0.10229512 -0.12994715 -0.41397189 -0.43669790 -0.28951105 -0.41275017 0.17423403 0.35756127 0.25511186 0.84806380 -0.02426513 0.60080200 0.27935709 -1.01638296 0.38739069 0.10094892 0.13343724 0.26441114 -0.27612100 0.37185571 0.19433518 0.66907600 -0.04568139 0.66981099 0.62797021
蔡澍 -0.09035262 -1.67538123 0.55950870 1.35295855 0.33559369 0.03648713 -0.58378448 1.01336665 -0.16056993 -0.81989135 0.08085854 0.42330214 -0.49022206 0.22045519 -0.28725508 0.03645161 0.02502638 -0.31570510 0.11615049 0.43478419 0.25226483 -0.05062867 0.43597052 0.00468490 0.09288824 -0.17117274 -0.13712782 -0.15651618 -0.27473074 0.20988142 -0.34863330 0.21202216
水解蛋白 -1.63376622 1.01194529 -0.82609757 0.66049762 -0.79952522 -0.08428451 0.71007408 -0.63978178 -0.23678167 0.51694053 0.81927538 -0.58787585 -0.13952406 -0.51309398 0.04614835 -0.18371601 0.38813696 0.33150203 0.02739131 0.11329902 -0.31591773 0.01307090 -0.16014479 -0.29483198 -0.37963057 -0.10064812 -0.08408376 0.40052292 -0.51217658 -0.37412687 -0.16701831 0.22603182
蔡慧玉 0.60104039 0.42607103 1.07804796 1.76463909 0.90075717 -0.46458508 0.45762097 -0.46933557 0.09809068 -0.20941082 -0.28764975 0.35855172 -0.38690626 0.16525642 0.16107660 -0.40075281 0.19136707 -0.04697031 -0.20450870 0.37652944 -0.27002728 -0.02166038 -0.36724873 -0.17432284 0.64969288 -0.10675869 -0.09652820 -0.11049365 -0.40829545 0.01377702 0.49192723 0.00488584
皮特·桑普拉斯 0.68190838 1.18238251 1.23035375 0.96864140 0.14633863 -0.18491288 -0.51815935 -0.00909011 -0.44382837 -0.40532285 0.59387043 0.31018287 -0.43962917 1.52472954 0.00165894 -0.48960077 -0.59768153 -0.35178187 0.00007381 0.43975656 0.70049419 -0.52981094 0.03489280 0.62300063 0.44084338 0.58473807 -0.37720239 0.22645794 1.26064982 0.14870986 -0.11348137 0.04347765
今 -0.36559360 -0.41613103 -0.35313758 -0.10928188 0.10906201 0.81778889 -0.85487110 -0.56454773 -0.44805799 -0.51074221 0.02010260 0.34351641 0.23492523 -0.12429498 0.41930944 -0.29425815 0.40065798 0.54248429 -0.44429172 -0.25497338 0.10125051 0.22805959 0.18669417 0.11673854 -0.53898966 -0.24430895 -0.29729415 -0.48885533 0.30743733 0.42842549 0.03400251 -0.41704225
费罗娜·范·德勒尔 0.17676877 1.18962962 0.86762493 1.34345740 0.41243442 -0.30330164 -0.19960075 -0.43314457 0.16483994 -0.17767367 0.40867417 0.04974585 -0.49325552 -0.11515079 -0.07200506 -0.26448342 -0.32505917 0.29075477 -0.00288723 0.53425705 -0.04736306 -0.03417205 -0.16598510 0.15724372 0.27083635 0.25568135 -0.18663343 -0.02713332 -0.14266106 -0.27067338 0.23641866 -0.03182933
本·古里安 0.76398646 0.61371261 -0.58119064 -1.07586866 -0.01643567 0.01357506 -0.06691154 0.67709986 0.96309255 -1.17677220 -0.57217514 -0.34298997 -0.69173349 0.38610189 0.23829082 0.56933628 0.68212766 -0.04930250 0.30595220 -0.77369072 -0.58585450 -0.44231857 0.33314515 -0.32051064 -0.05532706 0.49858836 -0.36387742 -0.31685500 0.04444585 0.58411501 0.25159705 0.11716801
亳州市 -0.25628208 -1.31014993 -0.61224919 0.06333383 1.14402311 -0.03028476 -0.42199314 -0.86641169 -0.35590015 0.05065105 0.50721691 -0.01538499 0.29736522 -0.35390901 0.65495093 0.39007377 0.33330866 -0.15977537 0.32333604 -0.11545934 -0.27844046 0.03292918 -0.06795003 -0.35666958 -0.27928214 -0.39187917 -0.11144224 0.04267623 -0.03047539 -0.32412123 0.31792489 -0.23554026
探听 0.04687969 -0.45771030 0.50955693 -0.83098609 -0.13482601 -0.20957919 -0.46728878 0.32479013 0.17898617 -0.32549524 -0.20533159 -0.81880845 0.51348850 -0.72621366 0.12122328 -0.81831033 -0.01968368 0.12248473 0.06106332 -0.70680464 0.70816193 -0.09233657 -0.19144765 -0.46150267 -0.82057956 0.62883615 0.23238670 -0.22319563 -0.52837046 -0.47091422 0.51033158 -0.71005179
苏芦亚加 0.73128823 1.44096478 1.17465261 1.07814987 0.74422908 0.21271020 -0.59883439 0.00855583 -0.90019821 -0.11839751 -0.06353194 -0.53888828 -0.14094838 -0.29372002 0.30646725 -0.09275276 0.49340219 -0.29966009 0.58854488 0.07964123 0.21581649 -0.09100886 -0.01964737 -0.51773710 0.46022767 0.09292317 0.04855800 0.58313738 0.43307618 0.33254787 -0.50686524 -0.72461848
哈什伯格 0.39630240 0.10209159 0.04776354 1.61853753 -0.61714609 0.23000720 -0.18627103 -0.59599629 -1.17331864 -0.32955653 -0.51580377 0.51457542 -0.06236231 -0.25280061 0.18033155 0.00061424 0.53320817 -0.23889763 -0.01321636 0.75750858 -0.35218646 0.18254673 0.23168642 -0.62247574 0.38313101 -0.08797056 -0.11027825 -0.31637460 0.23762317 -0.40739409 -0.55897272 0.48251646
考帕 0.55378050 0.61522755 0.47553890 -0.04345860 -0.32168492 -0.68898432 -0.54509990 0.63965467 -0.61928845 0.08545319 -0.01317841 -0.18043780 0.13348434 -0.21522803 0.05861605 -0.16374268 -0.21340042 0.31542663 -0.14705014 -0.57936622 -0.28772866 -0.30633997 -0.40385320 0.13005031 -0.09295147 0.28798355 0.03784787 0.23475999 -0.19633956 0.22323201 0.21190469 0.06334388
鬯 0.07222798 -0.99848120 1.25360231 0.72892142 -1.47286340 0.72944461 -0.09820245 -0.75031524 0.70234420 0.25649864 0.30484178 0.12730795 -0.19585604 0.33322046 0.21691650 0.02855704 -0.76073221 -0.04130502 -0.00637364 -0.75853927 0.34025326 -0.57592816 1.04872223 0.36955308 0.51761638 -0.86427462 0.33281934 -0.16446915 -0.05778024 -0.21280915 0.39763261 0.51012956
波兹尼亚克 0.93449941 0.42348271 -0.22964403 0.36073003 -0.16777030 0.52989320 0.57948675 -0.72990728 0.20221366 -0.15292895 0.45430612 0.76759301 -0.27724013 0.76343080 -0.93547092 0.56531622 -0.23346141 0.13565244 0.02757895 0.80537705 -0.06042453 0.07584349 -0.19651657 -0.79572552 0.08699113 -0.42086383 -0.16220606 -0.00540815 -0.00597958 -0.53911751 0.07543706 0.31033929
罗伯特·威尔逊 0.62229052 -0.16379868 -0.02531186 -0.29292685 -0.69935525 -0.30969228 0.68533875 -0.84499773 -0.16091597 -0.39356419 -0.60180069 -0.31112014 -0.26134649 0.31737789 0.13462754 -0.17921905 0.54997306 0.49164178 0.09033161 0.02421963 -0.38027696 0.07519187 -0.18776511 -0.64501933 0.12296972 -0.50160416 0.40808151 0.10420470 0.53984210 -0.38389945 0.13396910 0.33782688
细纱机 -1.55095053 0.35994533 -1.30429848 0.17044133 0.24379900 -0.97423628 -0.29274292 0.11478170 1.34014958 0.25475173 0.65946551 -0.00163904 -0.21340464 0.61993227 -0.63779564 0.04812961 1.06268107 -0.82497167 0.33294607 0.72017557 0.21038771 -0.87577585 0.31599630 0.39121199 0.35631395 0.09250548 -0.22635266 -0.07925588 0.25115634 0.11649782 -0.14912280 -0.19438152
史晓帆 0.54994987 -0.79565478 -0.52086803 1.68186574 0.94999564 0.51012117 -1.18415747 0.91388227 0.02174516 -0.45212570 -0.04206191 -0.45065154 -1.16306554 0.58280644 0.22093802 -1.18913138 0.78029504 -0.02735299 -0.21871555 0.36479362 0.21893366 0.04916914 0.94093403 -0.00795549 -0.14423946 -0.01772535 -0.46383479 -0.51064832 -0.49779234 -0.10935392 0.48636901 -0.31349150
勾勒 -0.87259291 -0.18819805 0.17753902 0.22326717 -0.88446378 1.16189155 -0.37750913 0.81235311 0.07848199 -0.21032899 -0.39741393 -0.09230697 0.33439493 0.21568661 0.52685497 0.10837728 -0.74730564 -0.11782697 -0.63680019 0.17979194 0.31139475 -0.66303520 0.24273787 -0.66352360 -0.29742356 -0.23560941 0.18623140 0.40258608 0.27454556 0.19059234 0.08408861 0.16706853
欧安组织 1.38092930 1.22537806 -0.94128720 -0.64100578 -0.12591842 -0.09794720 0.37201129 0.28242160 0.12607477 -0.16208775 0.57947542 1.15705102 0.20907015 -0.30933275 -0.43290734 0.79424499 0.27028560 0.09944137 -0.06701258 -0.04927692 0.13806092 -0.54505394 0.33095432 0.35436090 0.78832131 0.54314331 -0.06990290 -0.13290171 -0.31344847 0.09350907 -0.36368626 0.62477309
厉善 -0.03286791 -0.77200120 -0.00931669 0.14486670 0.72637031 -0.38930158 -0.21862152 0.10111909 -0.01121903 -0.78628537 0.50586223 0.05721047 0.14433172 -0.10428138 -1.02358380 -0.63454699 -0.64922425 0.70925581 0.59316018 0.15031959 -0.55555242 -0.64400178 0.30945720 0.61156864 -0.27967673 -0.04783998 0.25858735 0.31338073 -0.74418298 0.33636391 -0.40912519 -0.30022522
李坤 -0.08938453 -0.57718198 0.74286163 -0.63273752 0.02905351 -0.24427545 0.25225662 0.40351280 0.09387382 0.27661927 -0.40327090 -0.49932547 -0.34802954 0.40237143 0.17943232 -0.17404697 -0.38048328 0.72467649 -0.30709571 -0.27460473 0.17278992 -0.16235209 -0.16469312 -0.31010089 0.40910956 -0.34884153 -0.32004432 -0.17993493 0.53252117 -0.30108122 0.21019095 0.53069355
参谒 -0.01542008 -0.51944496 0.21400587 -0.63561755 -0.15285444 1.66289985 0.38442877 -0.61167730 1.13202049 0.49938830 -0.63995330 -0.40389729 -0.10026020 0.56698545 -0.19462095 -0.28213559 0.24911201 0.65952438 0.05348545 -0.73074427 -0.04824916 -0.33169433 -0.43985569 -0.06344621 0.08755699 0.41474365 0.14594570 0.39027912 -0.31501048 0.66859906 0.48045470 -0.85544936
柏盛 0.52018200 -0.34230431 0.46783910 -0.49891848 -0.32659213 -0.26266172 0.10381941 -0.00779263 -0.38890804 0.07794974 -0.83431112 -0.09294835 -0.39034214 0.21978035 0.23388355 -0.27171820 -0.87454797 0.65443330 0.25803124 -0.53466511 -0.23593741 0.04173350 -0.09024037 0.21573179 -0.36263514 -0.13686550 -0.32586831 0.05441032 -0.23296276 0.24223367 -0.15130868 0.28447566
第三百六十六 -0.47232429 0.18199403 -0.59123149 -0.38758870 0.00179910 -0.48722521 -0.44728342 -0.55269075 0.60936024 -0.01093174 0.13827544 0.05927673 -0.10536084 -0.44879393 -0.18655362 -0.42373504 -0.14221335 0.29404565 -0.42410222 0.00735606 -0.23675478 0.39024422 -0.02613982 -0.22920767 0.19692313 0.27068175 0.37411437 -0.09482289 -0.09928040 -0.38544825 -0.09787282 0.14745047
康体 0.49859224 0.04324452 -0.25415114 0.57808163 -0.21405744 -0.36371592 -1.22392003 0.44609526 0.19027370 0.61381330 -0.37468725 -0.07793915 -0.59725878 -0.39741551 1.30611647 -0.10771173 0.24752425 0.16046155 0.36169746 0.15141221 -0.84636164 0.66743337 0.44153393 0.76513858 -0.60926652 -0.43258787 0.72441759 0.81573233 -0.17993432 0.00377898 0.30598851 0.21716678
月岩 -1.41328377 0.64198391 -0.63857861 -0.09153554 0.29888644 0.40635021 1.38104634 -0.04262503 0.14507516 -0.25970449 -0.44941136 -0.06229666 -0.50570860 0.21941432 0.23164459 -1.40338105 0.04809805 0.03103569 -0.05934240 0.62463142 0.48200669 -0.42094792 -0.55008258 -0.43020142 0.27206098 0.12178282 0.08374230 -0.02388499 -0.59544477 0.12333119 0.48343051 0.18904924
杨瑞元 0.74280438 -0.32367902 0.07802767 -0.58155132 -0.35566410 0.25183122 0.19511778 -0.86203439 -0.72095844 0.18388263 0.17648424 -0.21698288 0.13492965 0.36788393 0.31443548 0.62235744 0.02795240 0.13485916 0.18671607 -0.03577326 -0.20911854 0.47312069 0.56244107 0.45097736 -0.43748109 0.02035523 -0.34910474 0.22190747 0.16877833 0.08694127 -0.42415682 -0.02886085
大钊 -0.15439414 -1.31454761 -0.36311483 -0.44245936 -1.27267461 0.00234972 -0.03792215 -0.47494109 0.44791888 -0.39727304 -1.14559689 0.46568790 0.07138534 0.41650842 0.03183134 0.49125611 0.40915862 0.36475097 0.81010629 0.51637283 -0.85060448 0.08145556 -0.21629387 0.02283913 0.32445994 -0.00858869 -0.32868389 0.65547444 -0.29724491 -0.15803822 -0.12913158 0.04269325
红灯记 -0.74759037 -0.82443291 1.35752348 0.17481215 -1.39652967 1.00736905 0.01399219 -0.14718622 0.27675564 -0.22353972 -0.00417555 0.29661636 0.74430714 0.06282999 -0.46485975 0.61750714 0.05065362 -0.46421531 -0.07508223 -1.03751995 0.32118831 0.54819612 -0.02601959 0.91164763 0.53448401 0.22143004 0.56948493 0.30038121 0.66679067 0.15231295 -0.58080555 -0.66776845
绵竹市 -0.60755816 -1.26246337 0.15998964 -0.33540071 1.24833967 0.17169748 0.19147298 -0.11753949 -0.25978453 0.05371193 -0.41971235 -0.38079807 -0.01063788 0.07947979 0.60276197 0.89535805 0.10647236 -0.07875099 0.18761628 -0.53947184 0.54593016 -0.19702645 0.31859577 -0.35633288 0.08467652 -0.09066719 0.28470900 0.99476535 -0.06692467 -0.78716238 -0.23132643 -0.36256108
刘殿玉 1.24579374 -0.58253992 -0.44093791 -0.29054356 0.47176453 -0.63273797 0.69914446 0.23767911 0.36726355 -0.49324546 -0.11921030 -0.03378072 0.39340928 -0.36869808 -0.23992010 -0.46363680 0.19812928 -0.15725871 -0.35131388 0.06404357 -0.15409959 0.10693036 -0.12135128 -0.15566266 -0.14280592 -0.28237715 -0.43689721 0.54999503 0.61655850 0.02968314 -0.13575338 0.10512339
郑建和 0.62772686 -0.86361858 -0.37341243 0.94571240 -0.48771414 -0.15463189 0.06832537 0.57669642 0.04465739 0.17155033 1.05050190 0.18762990 -0.34654127 -0.10991461 -0.15953157 0.02127076 -0.43380058 -0.96159892 -0.17673266 -0.08576451 0.04833579 -0.17163941 0.33114566 0.03591780 -0.08024789 0.23194882 0.09692366 -0.99620683 -0.41789855 0.38530311 -0.05161326 0.18482333
人缘 -0.00139519 -0.30769039 1.13148756 0.34105166 -0.27505311 0.16687937 -0.33415089 0.13876838 0.02898628 0.87148079 -0.08861242 -0.00713604 0.29250544 -0.50664578 -0.25675136 -0.41767021 -0.53526196 -0.27786833 0.16378679 -0.35132184 0.32531505 -0.18466518 0.25049287 -0.41484588 -0.92822790 0.63971378 -0.88540193 -0.00784345 -0.56145126 -0.34064894 0.36458703 0.86761260
利西茨基 1.25920801 0.31461018 -0.67962111 -0.23957929 0.36813903 0.04789142 -0.07647863 0.16718719 -0.13288712 0.24232942 -0.06310262 0.18731171 0.13242569 -0.04267123 -0.10007202 0.02242900 -0.07487955 0.07085488 -0.16638278 -0.08405108 0.13445090 -0.06948136 -0.04280958 -0.32984814 -0.13501496 -0.03152716 -0.23534457 -0.16817726 -0.18869463 -0.09115177 -0.13751079 -0.11151204
晕车 -1.61277681 -0.08814425 0.41799632 -0.50872946 -0.57914833 -0.92482531 0.81074391 0.28097285 -0.12562754 -0.46182649 -0.26011909 -0.20071432 -0.96852986 0.02968036 0.13723199 -0.35500254 0.92407550 -0.60424542 -0.13667762 -0.62398606 -0.38028902 0.43112899 -0.45365761 0.56930457 -0.55884820 0.61487308 -0.28174933 -0.18559356 0.18068653 -0.04381808 0.19537548 -0.15889340
王震传 -0.09758778 -0.42873903 -0.01771428 0.53162463 -0.71467536 1.01470033 -0.17744807 -0.56721798 0.34218534 -1.40276061 0.00990570 0.46948323 0.26862970 -0.42506185 -0.18906853 0.08400276 0.18245547 0.57813316 -0.13851996 -0.05443345 0.80837494 0.35644309 -0.19668284 0.44301395 0.68936491 -0.57694771 -0.04454707 -0.48759890 0.52723820 -0.38802506 -0.21963416 0.01022730
伊科非 0.12594302 0.83287877 -0.83145134 -0.99037120 0.67641419 0.39096895 -0.02121467 -0.06420298 -0.03264983 -0.64779100 -0.15026380 0.41092711 0.32675449 -0.39799462 0.12473208 -0.56991879 0.05525171 0.41501564 0.01749546 -0.13896113 -0.40043270 0.02068774 0.46060040 -0.06624634 0.19417051 -0.16385284 0.44097870 -0.18595054 -0.34842004 0.08189554 -0.25649807 0.27973163
张功林 0.64604611 -0.06102299 0.22583207 0.38125012 -0.12586779 -0.81065613 0.57607060 -0.87949474 -0.68363313 -0.41035722 -0.52171602 0.66426475 -0.14144902 0.23469424 -0.36372220 0.13182914 -0.14197105 0.35105008 -0.01467359 0.10758392 -0.58681178 -0.02383164 0.06641418 -0.13100078 -0.56112288 0.11445722 -0.25943698 -0.10104079 0.24418943 -0.11498308 0.06110142 0.13736765
张伯达 -0.40139748 -1.28736438 -0.10571627 0.94150742 1.06767356 0.52798678 0.17102139 0.76943599 -1.14734586 -1.16332534 1.13290956 0.20609577 0.07898334 0.09637224 -0.22639378 -0.15616767 0.64128148 0.20009365 -0.26026364 -0.31241767 0.04680163 -0.72948826 0.04714905 0.02911936 0.34639718 -0.67764472 0.12306777 0.06134290 0.26831795 0.93259151 -0.35682116 -0.30881735
哈罗德·希普曼 0.10631773 0.56163508 0.19141916 -0.91565117 0.16316319 -0.15812190 0.03759941 -1.12077839 -0.69499391 -0.82553130 -0.08214509 -0.31073156 -0.32523878 0.11615287 0.16495004 0.07100561 0.24104135 0.12216203 0.25314025 0.45739110 0.16844018 0.33007319 0.21603907 0.06775651 -0.49383695 -0.03551472 0.14404346 0.00335287 0.12196333 -0.05241947 0.00240012 -0.08986706
奥列克西 1.19125936 0.56155893 -0.70376138 -0.75370253 -0.12262896 0.12143722 -0.37308659 0.22930834 0.02663425 -0.19802307 0.89845485 0.29385734 0.00879806 0.44455864 0.63761830 0.99024417 -0.65514899 0.03350545 0.33227035 0.00898580 0.76960954 -0.31124845 0.18428980 0.34051028 -0.36813501 0.30847783 0.17025976 0.36458779 -0.38775069 -0.27329842 -0.32292651 -0.14862954
升高 -0.94763290 0.84134450 -0.59439046 -0.20753877 0.06719305 0.24261560 0.03185672 0.31445376 -0.76375518 -0.02308361 0.33826058 0.95203585 -0.15156872 0.84046580 0.39153887 -0.25381972 -0.09452809 -0.84766083 -0.51751915 -0.54520760 -0.30270393 0.76876844 -0.00288473 0.00406131 -0.80725749 -0.21870058 -0.69177454 -0.54515324 -0.36132907 0.34815866 0.15740780 -0.36602682
内塔尼亚胡 1.48804380 0.89375298 -0.46034426 -0.96323013 -0.32697609 0.07634630 -0.53561507 0.03736432 0.08292252 -0.30951596 0.93588113 0.30041639 -0.17122505 0.65922806 0.02851943 1.17830720 -0.41531483 -0.25279342 0.62383931 -0.61792162 0.99572873 -0.94224034 0.07960201 0.51172613 0.22801067 0.03324616 0.25685560 0.51014945 0.20942429 0.07034236 0.51677269 0.01000850
博雷利 1.69311840 0.77174434 -0.81166904 -0.17734895 -0.36916073 0.35220466 -0.04420851 0.41079365 0.55482527 0.06161627 0.13415145 -0.06110785 -0.02093739 0.21198463 -0.04102283 0.63397437 -0.45223237 0.07584989 -0.28118257 -0.17961836 -0.69519958 -0.05535700 0.00500115 -0.05830762 0.20373978 0.00168834 -0.11541397 0.09818165 0.50121645 -0.13511868 -0.13345424 -0.18105597
普鲁西恩 0.46539160 1.62998246 0.80748574 0.84983970 0.32615360 -0.40291498 -0.20064203 0.22098856 -0.24687317 0.55225109 0.27802250 0.24803723 0.06264563 -0.18362493 -0.28249375 -0.09553271 -0.57217478 -0.14490761 -0.04155525 -0.40205179 0.24567741 -0.45734017 0.02389579 -0.73456142 -0.20786570 -0.25269314 -0.09365879 0.11791686 0.20097158 -0.31663575 -0.06089276 0.28556206
麦奎因 0.63006965 0.26401662 -0.65128576 0.24498846 -0.63248881 -0.04823088 0.41198965 -0.26808836 -0.78136500 0.16179102 -0.10791174 -0.65863844 -0.45109317 0.14659847 -0.41238860 -0.74587311 -0.38978066 -0.49148133 0.25753269 -0.34231502 0.32782012 -0.28662779 0.12225109 -0.15633985 0.12377345 -0.12444561 -0.49767834 -0.02467074 0.14609253 -0.51479192 -0.30050780 -0.26281438
戈特沙尔克 1.11414294 0.67815232 -0.66836154 0.47410672 0.05256101 -0.55913767 0.42489733 0.62815192 -0.73346959 0.09786635 -0.18104577 -0.26823194 -0.74129762 0.41174560 -0.02322327 -0.04389958 0.07651867 -0.65728222 -0.54131998 0.10866818 -0.40156992 0.19577367 -0.40204772 0.08288075 -0.63881813 -0.74794463 0.15317295 -0.20165822 -0.27826516 0.11362566 0.08772291 -0.46818869
李绍双 -0.69069854 -0.60247759 0.08909204 -0.08279943 1.06517623 -0.02524069 -0.33932474 -0.66624121 -0.93465212 0.49933653 -0.05933665 0.08361815 -0.21249411 -0.26902629 -0.42741186 0.15598140 -0.38003134 0.26030113 0.24359359 0.29809341 -0.06382480 -0.22646605 0.36996359 -0.07088816 0.04086369 0.17107490 0.51393554 -0.01374001 -0.02817521 0.01489886 0.05719595 -0.57641747
林强 0.74838916 -1.18264658 0.47617470 0.73607027 -0.23728500 -0.31998461 0.09702252 -0.14213599 0.45447856 0.66449761 0.32750766 -0.30138031 0.68631290 -0.64020876 0.09324904 0.21278322 0.14645790 -0.50104342 -0.46936504 -0.37611851 -0.26505987 -0.22429725 0.21848464 -0.15572380 -0.02064497 0.33583395 0.04851140 -0.38160842 -0.42333641 -0.26457881 -0.12987556 -0.40673532
严邦洪 1.54133863 -0.31255303 -0.87248131 -0.23024458 0.00363653 -0.51092243 0.06698959 0.57526280 0.50313149 0.29423640 -0.62429622 -0.90847848 0.78109879 0.18912739 -0.17443366 0.30455661 0.94615127 0.06252217 -0.00681508 -0.02290487 0.12620896 0.39969244 0.19447786 -0.28258769 -0.11094173 -0.32562162 0.22788888 0.12181962 -0.31781291 -0.83510766 0.05686643 -0.07579463
蔡金保 0.06396681 -0.65375021 0.05034014 0.61225604 0.24962429 0.46849264 -0.52745869 0.40280840 -0.35952418 -0.96086710 0.33329788 0.13416499 -0.21946994 -0.38762084 -0.41096867 -0.21593160 -0.08226962 0.00055090 -0.39434030 -0.13481464 0.28184929 0.26048512 -0.00225888 0.11584950 0.29538740 0.01975987 0.14035256 -0.09170014 0.31817846 -0.10534866 0.28676245 -0.14942419
固色剂 -1.32850157 0.41558539 -0.70228757 0.60989231 -0.72024490 0.52284026 0.44791319 0.06218212 -0.36178506 -0.12263408 0.48482717 -0.44796669 -0.38764354 0.17167589 0.06654914 0.09754082 0.43644456 0.12887515 -0.21051278 -0.34042197 -0.42212133 -0.33897704 0.01059153 -0.29697805 -0.43924465 0.33533545 0.20389073 0.83472440 0.00473515 -0.35163922 -0.29979137 0.37029206
内泽戈尔 -0.23866674 1.78533606 1.90757946 1.36186794 0.15850049 -0.48081616 -0.56838297 0.08481144 0.05438566 0.49051027 0.76632347 -0.31585243 -0.36489705 0.84887479 0.18555246 -0.52393757 -0.10020749 -0.17277827 0.29962691 -0.82034304 0.71027022 -0.35642980 0.18215461 0.30963546 0.55491583 0.40433193 0.69013079 0.33323833 0.51926443 -0.30302232 -0.47427958 0.30868246
张良任 1.03103427 -1.12378102 -0.26976257 -0.32221098 -0.44398773 0.05772431 -0.39706130 -0.71112651 1.60869886 0.48451056 0.55441746 -0.66143112 0.70334757 0.00628616 0.81211065 -0.96859343 1.55646293 1.08734003 0.34778240 0.11426914 0.49173522 0.32237275 1.06771431 0.18484664 -0.20210591 0.38876463 0.03186942 -0.35253309 -0.37279825 0.57076115 0.25900199 0.08881644
瑟罗米亚特尼科夫 0.32121063 0.22646659 -1.27648450 0.01919658 -0.24373030 -0.76570001 0.22783534 0.68012258 -0.22317016 -0.19517275 -0.24289319 -0.82723405 0.37755571 0.11016361 0.17354853 -0.08208675 0.16014745 -0.28685641 -0.00386846 0.32711367 -0.12134051 -0.06501978 -0.27427673 0.48219413 -0.45455895 -0.31281085 0.09441892 -0.04006135 -0.25914504 -0.27619392 -0.00619763 -0.06835094
王应德 -0.24767966 -0.66748471 -0.20579058 1.41137930 -0.01905027 0.22215452 -0.50694277 0.57287792 -0.09753086 -0.98300389 0.13932373 -0.21188082 -0.64017561 0.17922416 0.71592598 0.25024448 -0.40694889 0.26847321 -0.21921565 0.06816278 -0.05441504 -0.30364777 0.46225728 -0.07757120 0.15661958 0.05781183 -0.42584082 0.18919662 -0.04985443 -0.12768847 0.12322438 -0.17528738
六亿 -0.27391205 -0.49776599 -0.55905322 0.65039399 0.51221797 0.44380832 -1.42662929 -0.15362714 -0.03371217 0.68210836 -0.06312789 0.57490940 -0.46565239 0.11537910 -0.68017865 -0.47659811 0.33293138 0.35353449 -1.08192564 0.39644781 -0.01888355 0.06376521 -0.08208174 0.20872694 0.02774722 -0.27739801 0.57889980 0.27508995 -0.27914261 0.73494945 0.22084626 0.03947086
血书 -0.67960306 -0.28670631 0.45493446 -1.32492371 -0.51339383 0.27618075 -0.12252273 0.03721890 0.20251552 -0.95675899 0.72100779 0.04698069 0.10043976 -0.23228234 -0.08270898 -0.51830129 0.39706195 0.76455181 -0.04467723 -0.16652089 0.21266838 0.73036490 -0.75944891 -0.34296588 0.44788556 -0.31800243 -0.25687192 0.24749226 0.94289583 0.66110190 0.00099883 0.22858782
郝永效 -0.26490554 -0.91689129 0.05107834 0.29573012 -0.14374231 0.07043940 -0.18457109 -0.38925256 -0.84951737 -0.50666370 0.30256674 0.61656483 0.46616016 -0.15830433 -0.48514655 0.09003860 0.00474056 0.53831651 -0.16565068 -0.23328726 -0.47919259 -0.40775520 -0.17979795 -0.08939655 -0.29990866 0.47165017 0.28672653 -0.04332464 0.09828300 -0.18040482 0.42519481 -0.27852024
阿·朱勒 1.15823282 2.16663654 0.69004454 1.16254678 0.91229072 -0.63745857 -0.31058404 -0.81869017 0.20410180 0.08876164 -0.80491016 0.42887269 -0.40647272 0.40836639 0.90333859 -0.20265494 -0.22172235 0.08259249 0.05713442 0.28257242 -0.29963352 -0.18354205 0.10350220 0.17489184 0.79616734 -0.48349670 0.03035829 -0.16571173 -0.17171945 -0.50035827 1.08427537 0.58566704
任立恒 0.38508927 0.68204839 1.65085992 0.50942891 0.50930588 -1.03236527 -0.05923012 -0.32428926 -0.03862851 0.18812774 -0.70901343 -0.06693106 0.05565344 0.23447079 -0.07195592 0.39007295 0.18150828 -0.08891385 0.08127018 0.14418354 0.25358071 0.24057494 -0.28062934 0.10738421 0.47203095 -0.51193208 -0.05366414 -0.18965538 0.20812579 -0.29951456 0.22985958 0.28418220
亚举联 1.02389691 0.07898460 -0.11027747 0.18397262 -0.38924390 -0.05920793 -0.46117503 -0.19198473 0.46749040 0.98020327 -0.18144046 0.69592123 0.56419760 -0.72788803 1.12096262 0.68082353 1.01391875 0.32283699 -0.09680142 0.58289926 -0.50463092 0.22935423 -0.42172509 0.15216675 -0.17547505 0.01780806 -0.02328038 0.07911161 -0.23274578 0.03038824 0.46910533 -0.33798789
玉枝 -0.77171016 -0.56449841 0.78075630 -0.72566257 0.08782164 -0.57168917 -0.31288469 0.29755817 -0.07793017 -0.01774512 -0.18001787 0.41074432 -0.45265427 0.19447049 -0.44953482 -0.05802362 -0.02499693 0.15618435 -0.30505640 -0.07428717 0.31900703 0.21834567 -0.04386174 -0.46425459 -0.08100191 0.24183655 0.14915504 -0.32118031 0.20588261 0.06176886 -0.00413209 0.11960932
王竹林 0.57611929 -0.30284438 0.30633256 0.30463463 0.13127084 0.16732617 -0.22303506 -0.40823419 0.42681434 0.18561035 -0.79875854 -0.18993287 0.44110860 0.01687669 -0.85331924 -0.05464334 0.42879220 0.08045760 -0.02115577 0.25260097 -0.56882863 0.36572733 0.37334450 0.26323488 0.50364180 0.10691929 0.06056357 -0.19502597 -0.41132170 0.07342583 -0.16837195 -0.28328347
木加土 -0.26355155 -0.56552551 0.32783327 0.35969274 0.84327025 0.67680611 0.22384778 0.35689087 -0.08863769 0.16870772 0.25981454 -0.80593420 -0.04689728 0.20054624 0.08259054 -0.24575580 -0.40039606 0.72644104 -0.07255766 0.11195975 0.04419623 0.05451467 0.40343811 -0.05648385 -0.08061812 0.51681966 0.02303671 -0.31432637 -0.21008311 0.26036753 0.31795773 -0.16446709
刘广均 -0.02955829 -1.33988517 -0.41260288 1.48044662 -1.13190398 0.23818657 1.49005334 -0.57484337 -0.29748809 0.08509352 0.26078317 -0.28913247 -0.16206365 0.74032431 -0.33103983 -0.31319969 -0.55456996 -0.06552704 0.25596096 0.04945904 0.25787964 -0.28420122 0.35321705 0.17576046 0.01824874 0.02169718 0.60835042 -0.41921113 -0.26597081 0.26523320 -0.33274753 0.40047461
侯天佑 0.40773448 -0.50434331 -1.04753791 0.07314224 0.29996664 -0.13816725 0.25139445 0.12701224 -0.14528740 -0.18165869 -0.01329727 -0.07416444 0.56200072 -0.38533382 0.23553568 -0.46000692 -0.01478844 0.10746291 -0.52827345 -0.12488357 -0.30822228 -0.65127271 -0.45202112 0.13501327 -0.02855988 -0.05952176 0.32240510 0.25285915 0.36017394 -0.11082320 -0.22751641 0.30948092
普兰店 -0.94189977 -0.36337357 0.21696924 0.00851680 1.58178593 -0.52763494 -0.19743107 -0.20708298 -0.07853057 0.15789687 -0.92341197 -0.20063458 0.29318535 -0.22089373 -0.52952792 0.35553191 -0.35289017 -0.23815827 0.19096437 -0.97841927 -0.23976790 0.02056024 -0.27792091 -0.43399011 0.39886981 0.75663895 -0.15937128 0.10968498 -0.10309881 -0.30744745 -0.27321883 -0.47067365
尤里耶夫 1.38803583 0.39229888 -0.44640087 0.23710972 -0.32008928 0.05096863 0.49436436 0.58985143 0.21662558 -0.01193126 0.36882556 0.06419845 0.08852587 0.14255017 0.14197925 0.20112764 -0.32567058 0.13141858 -0.15313263 0.37228172 -0.35777758 0.22356099 -0.03672290 -0.19782271 -0.42967605 -0.27374017 0.28834394 -0.10671619 -0.42393880 -0.12201134 -0.30730844 0.37675517
巴旦木 -1.80613406 0.05026133 -0.12848643 0.17578623 0.09549461 1.34625946 0.75138763 -0.47280400 0.15318617 1.27262095 -0.41606050 -0.00909155 -0.56547940 -1.17979141 -0.83732257 0.40009955 0.57657807 -0.36210788 -0.04243360 0.46881908 0.48796703 0.14093067 -0.39854650 -0.11132930 0.18189716 -0.17272616 -0.37057243 0.80011440 0.27860640 0.14248664 0.03284955 0.62645506
土拨鼠 -1.43885402 0.32414803 0.21722381 -1.16437106 0.08056117 0.72353424 -0.52739415 -0.05640460 -1.31876485 -0.43147955 0.21656880 -0.25657368 -1.05228724 -1.00647232 -0.12659451 -0.73683388 0.51844082 -0.53740776 -0.58140031 -0.12716027 0.97286514 0.88757767 -0.00681354 -0.02094304 0.37158908 0.41883415 -0.11062508 -0.27149641 -0.06765687 -0.11245528 -0.61243550 -0.16655488
防鼠 -1.98754292 0.51159551 -0.70709281 -0.08332989 0.32100404 -0.15595201 0.86251001 0.18552969 -0.24138863 0.66050746 0.13633722 -0.02971154 -0.35665907 -0.23180806 0.05830474 -0.00914253 -0.54108141 0.74658810 0.82369188 -0.13529400 -0.97580461 0.13260977 -0.15568663 0.66196197 0.52596737 -0.37045082 -0.07819563 0.64483939 0.53358612 0.13781704 0.40578897 0.11574438
贾永安 0.40480618 -0.26608194 0.51858606 0.09240828 -0.03616615 -0.52091006 1.01212705 -0.04267941 -0.02619122 -0.50506950 -0.37414759 -0.22720824 -0.17747642 -0.38421834 -0.45051906 0.21064306 0.40684263 0.74017236 0.00410793 0.04367804 -0.25800538 0.42723587 0.45205810 -0.05461112 -0.13463961 -0.08373397 0.35490282 0.02386804 0.09475954 -0.24224423 0.32480095 0.40906456
爱尼 -0.08182035 -0.09344413 0.65175969 -0.52176546 0.72389027 1.18751581 0.40298702 -0.04906488 -0.15031958 0.42835764 -0.59224996 0.58113123 -0.39969784 -0.61309282 -0.58930684 0.29526704 -0.68198248 0.46354215 -0.02752081 0.08739264 0.25089232 0.07309392 0.89650106 -0.00257335 0.05961045 0.08920501 0.37728719 -0.11926377 -0.56364177 0.23477825 -0.08716449 -0.00177632
酒曲 -0.84107676 -0.47143029 0.61319202 0.17316889 -0.38267279 0.84009861 0.12895409 0.47577500 0.23445339 0.89288736 -0.03100089 0.56516225 0.03028344 -0.54693099 -0.71736069 0.26590524 0.14256858 0.50127701 0.23773061 -0.46948141 -0.01576044 0.41742478 -0.34021101 -0.28886547 -0.47546194 0.14031212 -0.24903114 0.12111126 0.25263625 -0.03164531 0.22167259 -0.28509542
党风 0.29453980 -0.21184983 -0.55805719 -0.58719419 -0.15850219 -0.36668858 -0.49025805 -0.42740903 0.46436099 -0.56297441 0.95885476 1.03208874 0.94429060 -0.27513460 -0.41179048 0.59338812 -0.98086846 -0.31000249 0.60976189 -0.34222376 -0.66902632 -0.80568300 -0.39000551 0.32602719 0.59651470 -0.16678675 -0.65478248 1.03458259 0.58524252 0.23910241 0.76234357 0.39807797
娜杰日达 0.86340491 1.22065446 0.79409863 0.67287805 0.36942627 0.04319820 -0.04989252 0.26881593 0.35932132 -0.01678798 0.14697545 0.25653067 -0.39026605 -0.04761868 -0.13538561 -0.20411868 -0.66059485 0.18896655 0.23931960 0.35338121 0.06549592 -0.09919585 0.01346238 -0.16644923 -0.05083190 -0.02664173 0.14291550 0.06416274 -0.11258678 -0.08603548 -0.15055452 0.17519317
煞白 -0.58242893 0.08772886 1.06576636 -1.05819666 -0.00019209 -0.58120146 1.70199843 1.13231329 -0.72535881 0.72696743 0.27481831 -0.42765755 -0.52097344 0.07025684 0.25998150 0.40752469 -0.69677910 -0.43870170 -0.57518723 -0.36450054 -0.08331038 0.21344130 0.30731874 0.15513056 0.02976271 -0.07453629 -0.20572430 0.52774413 -0.16882059 0.12782984 0.38356541 0.04231902
失当 -0.05903757 0.53204072 -0.02391242 -0.53862906 -0.70546135 -0.78734905 -0.19484208 0.14184362 0.57074631 -0.05866423 1.31465909 -0.23016304 0.70121699 -0.13306637 0.15033014 -0.45662694 -0.28624448 -0.61238237 0.11418501 -0.41365178 -0.18631070 0.31041268 0.15052711 0.43913232 -0.74708848 -0.13746540 0.04449907 -0.29391125 -0.27218456 -0.05343983 0.12563257 -0.29676566
深思 -0.03760922 -0.61329871 0.54024986 -0.50715456 -0.72606909 0.26970728 -0.46998894 0.60506829 -0.47979162 -0.13407119 0.97001447 0.14437094 0.64856003 0.23541420 0.02142604 0.40363651 -0.32612447 -0.46155999 0.24238768 -0.63101384 -0.55019004 -0.17837060 -0.84852260 -0.40267641 0.18216344 0.81655924 -0.08615233 -0.66515273 -0.23789627 0.02313289 0.61430503 -0.30407311
电话查号 -0.62488542 -0.08006319 -0.85288100 0.29343366 -0.26205529 -0.58172742 0.00391218 0.25624665 0.26629327 -0.44967081 -0.29552441 0.02023082 -0.05963355 -0.39278198 -0.02034642 0.08898015 -0.45864733 -0.32811548 0.53788276 0.29221802 0.02667384 0.81773569 -0.38491084 0.02918548 -0.03901077 0.11207460 -0.29536729 0.31427992 0.05700350 -0.07902176 0.03582357 -0.22967306
张喜云 2.25229625 -0.00394785 -0.05827838 -0.23929313 -0.38692151 0.58337699 0.46050702 0.36681979 1.43794500 -0.03210442 -1.12507226 0.32327365 -0.48432770 -0.00021432 -0.58017067 -0.73084482 0.69877576 0.30940535 0.00793614 -0.57956759 -0.01284329 -0.12168485 -0.73819396 -0.11149089 0.42468931 -0.32547936 -0.60061697 -0.54277765 -0.19479105 0.32474673 -0.37782019 0.10597644
酚醛树脂 -1.50963397 0.95068866 -1.17146076 1.39201715 -0.25449140 0.23276155 0.62491370 0.15082337 -0.52992798 0.28959480 0.68387227 -0.38185949 0.03641989 0.36423275 -0.48965404 0.28530485 0.72080364 -0.09249918 0.15514154 -0.60648989 -0.33688793 -0.79638422 -0.09968148 0.11969578 -0.23080863 0.28404570 0.41947647 0.41640155 0.05496937 -0.07866826 -0.20131413 -0.20064301
拉瓦鲁马纳纳 1.35731926 1.12296631 -0.04933652 -0.68848052 0.27064793 0.06628856 -0.54668976 -0.63280512 0.19156269 -0.01797458 0.66152214 0.61532316 -0.20034898 0.68003416 0.48153410 0.98930447 -0.55606630 -0.23588033 0.51148829 0.43262355 0.55635774 -0.31776495 0.33640835 -0.20210876 0.26056161 -0.16445823 -0.07139922 0.26973760 -0.40457075 -0.24685519 -0.53275409 0.02136704
龙行才 -0.54800164 -1.50913691 -0.04647386 1.07929825 1.43947123 0.03555497 -0.50442413 0.18982302 -0.69429709 -0.54836098 1.03844329 0.53623224 0.06454177 0.48441436 0.68312895 -0.26316273 0.28293878 -0.28366514 0.36849589 0.21638464 0.06944482 -0.61606788 -0.07961425 0.44819664 0.01992437 -0.41149883 -0.02086591 -0.10999080 0.04433460 -0.16057270 -0.25221054 -1.13621226
袋泡茶 -1.74053544 0.69925561 -0.26749714 1.04263342 -1.01799457 0.31858534 0.21387935 -0.06375989 0.34696701 1.26251660 0.36623498 -0.77794803 -1.00745090 -0.35283303 -0.83997894 0.19003251 1.05299436 0.08777034 0.99312854 -0.13394339 0.21747192 -0.38791799 -0.47009346 0.20723898 -0.63928777 0.59902843 -0.19391178 0.40167153 -0.08706808 -0.27255790 -0.16032026 0.12773754
扎马莱克 0.62360447 1.90397671 1.39257458 0.19523302 0.39871036 0.73923428 -0.30452065 0.19521840 -0.57933744 0.02177339 0.21876991 -0.13174062 0.78953917 -0.36079828 0.31738784 1.03669843 0.94491410 -0.03321144 -0.38059322 -0.25392037 0.41785560 -0.20697891 -0.72475710 -0.15745968 0.56333757 -0.27752370 1.02614999 -0.26630289 -0.05579960 -0.74921696 0.77041951 -0.28662878
巴伊塔什 1.70888681 0.04405393 -0.48864345 -0.24158976 -0.57971732 0.99109668 0.43578614 0.36533619 0.44246075 0.62697840 -0.37035308 0.06852275 0.22529090 0.21922044 -0.40450042 0.28051115 0.28903982 0.32561245 0.37819657 0.59648432 -0.45977598 0.55124467 -0.09307583 -0.38161660 -0.00644455 0.00744339 0.13545017 0.11803650 -0.49259308 0.31099983 0.19606823 -0.26851440
绝顶 -0.70020032 -0.39741003 1.42776347 0.15360074 -0.18028414 0.70547569 -0.33972514 0.80412594 -0.15311762 -0.18935014 -0.11460266 0.14632447 1.00098829 0.75334543 1.39799934 -0.60220685 -0.15674247 0.30810541 -0.12379813 0.50442595 -0.35496914 0.82089824 0.21041605 0.20927418 -0.08161205 1.08118076 -0.11288650 -0.23351411 -0.23238877 -0.35950894 0.42016325 -0.17248243
埃里克·埃内斯塔姆 0.95944320 0.47331007 -0.46810794 0.07746628 0.30557844 0.70694200 0.06687588 0.35410721 -0.39213174 0.22040445 -0.35284755 -0.12861215 0.04950577 0.29674554 -0.31840213 0.35247511 -0.10813644 -0.73106350 -0.06123749 -0.20956651 -0.21332423 0.46224976 -0.00759295 0.29657281 -0.27177182 -0.20577972 -0.23008976 0.06750527 -0.18767605 0.35485047 0.03516947 -0.02351653
航机达 0.06368485 0.76314309 -0.75022716 0.33965773 0.79315307 0.08262503 -0.53321893 0.20147497 0.54502141 0.15246959 -0.73726925 0.70018944 -0.47013551 0.15575891 -0.41660510 -0.24973528 0.56367662 -0.08542835 0.07910557 0.01319144 -0.37557929 0.21388397 0.12443308 0.10039637 -0.57956035 0.52053965 -0.40956369 -0.39819043 0.02706003 0.46412270 0.66747962 0.15295033
从而 -0.43211953 1.10933246 -0.39513407 0.15626510 0.24565889 0.05503924 -0.37809233 -0.23690295 -0.15820368 0.19973529 0.24481448 0.45635353 0.25972583 0.19115038 -0.51640142 0.24593577 -0.11688195 0.01590479 0.14299683 -0.27286617 -0.18027088 0.35822498 0.05787955 -0.95210229 -0.26553363 -0.29748421 0.58323637 0.43557655 0.13625489 -0.00827264 -0.11207523 -0.15557285
施琴尼科夫 0.26541484 1.30050364 0.28630121 0.54474574 0.35953138 -0.04334195 -0.05084397 -0.07326285 0.03168529 0.11979127 -0.07041670 0.32054114 -0.08533027 0.22301690 -0.16568422 -0.39890412 -0.32757390 0.34267383 -0.28519777 0.30409921 -0.23238380 0.26534945 -0.34386388 -0.33936966 0.00910494 0.10823266 -0.21253928 0.17324936 -0.25016686 0.20022084 0.47866080 -0.09407006
邹铭 0.61298937 -0.61375392 -0.33050394 -0.70535572 -0.05665040 -1.01794000 0.85161222 0.74722676 0.37545317 0.28687771 -0.10344611 0.04791397 -0.28937835 -0.59711044 -0.12341034 -0.40516484 -0.19525381 0.22428768 -0.42478390 0.37101456 0.31500904 -0.40521361 -0.10516773 0.40339812 -0.21185181 -0.51825967 0.35866798 0.17890146 -0.04099859 -0.13132533 0.09120306 0.23682083
豪曼 0.89597626 0.49329902 -0.57337322 -0.48891793 -0.45981722 -0.55143691 -0.25057862 0.14507009 -0.46385771 0.12044234 0.52077110 -0.00010932 0.05706332 -0.26053747 0.22041650 -0.19534194 0.53598958 0.10742858 0.09240886 0.47241949 -0.82135042 0.33352689 -0.09803479 0.39641723 0.01130401 -0.35265847 -0.18515881 0.08553020 0.04238027 0.39897313 0.04183856 0.17325345
祖陵 -0.86508818 -0.21682165 -0.11510327 -0.76146884 0.50427986 1.41278298 0.06294785 -0.78090713 -0.06439207 -0.50024996 0.40834076 0.18077528 1.56226348 0.22522676 1.75716560 -0.44994979 0.31942556 0.84725735 -0.55356332 -0.48704241 -0.08003102 -0.51877163 -0.36015416 0.58762719 0.43055181 0.17029427 -0.18836969 0.34007684 -0.02983687 0.09004104 0.53751945 0.25933068
德雷克斯勒 0.23859133 1.20710819 1.28878628 0.21985310 -0.45123977 -0.60228337 0.25898461 0.17053582 -0.70960696 0.02955590 -0.32338281 0.35324929 0.24053853 0.83164060 0.12536451 0.41053460 0.40877323 -0.21589876 0.01191798 0.62562554 -0.22158634 0.06902505 -0.51088315 0.75361231 0.42893446 0.60007609 -0.28204778 -0.24139881 0.05063320 0.30270637 0.17966075 -0.59197434
魏天佑 -0.93979647 -0.48645084 0.38028179 -0.81729363 -0.17617132 -0.18645836 -0.62848257 0.13657461 -0.27167726 0.63887523 -0.21983165 -0.22012271 -0.22422989 -0.07681593 -0.20526877 0.12019402 -0.52704271 0.01818722 0.41990600 0.26016921 -0.02620635 -0.16745896 -0.37899689 0.04719108 0.76887813 -0.28201460 0.35826989 0.57129120 -0.21143457 0.01289212 -0.46035694 -0.46651479
贝尔格来德 0.68723997 0.93377604 0.24663857 -0.15999052 0.68219786 0.59245824 -0.33204305 0.00353365 0.33843966 -0.64297201 -0.41121397 -0.00959535 -0.34509492 0.22430455 0.18690667 0.03773086 0.63313876 0.13873935 -0.12086794 -0.46863583 -0.19221638 0.30045988 -0.43805014 0.03750162 0.15781209 0.23549975 0.44935539 -0.20660978 -0.19282978 -0.06892956 -0.27940524 0.04898912
回良玉 1.11779677 -0.57160733 -0.67058289 0.11851006 0.23363262 -0.02677610 0.71271499 0.51867426 -0.12341840 0.31521888 0.44908818 1.07274767 -0.11132733 0.05194822 0.18947190 0.16533807 0.17776541 -0.26912601 0.62241136 -0.49254483 0.29720752 0.26480692 0.03802561 -0.07712410 0.26609388 -0.34692027 -0.04796532 0.27565526 0.62322492 0.17663232 0.69440907 -0.68368220
陈昌智 0.78931345 -1.11526475 -0.66478564 -0.00124102 -0.22086667 -0.85367638 1.66911288 0.43696313 0.91070327 0.46073926 1.65314275 0.37927967 0.23129871 -0.18907842 -0.53776137 0.11518668 0.28389924 -1.10876398 -0.53965195 0.70188610 0.03609950 0.26329514 -0.83993417 0.29954869 0.46837186 -0.17430679 0.46741091 -0.46231619 0.15036990 -0.15706304 -0.10548804 -0.28988198
维纳斯 -0.40013236 1.02163850 1.11311201 0.31535172 -0.51988336 0.24911251 -0.22519393 -0.45627730 -0.32962123 -0.24690369 -0.39046197 -0.84837943 -0.29927250 0.18435320 0.22218583 -0.13120095 -0.06559721 -0.10891453 0.27871110 0.15517272 0.60801379 -0.10060866 -0.06759881 0.11961650 0.03709141 0.19817938 0.13243748 0.56341359 0.81089476 0.08557783 -0.25172503 0.34233469
斯托姆 1.43555557 0.37420846 -0.85235289 -0.28446570 0.44533465 -0.14458903 -0.17072544 0.66752008 -0.37547230 -0.68344870 -0.75032075 0.01836890 -0.34381881 -0.36091668 0.31808277 -0.84491922 0.14991007 -0.05609167 0.02253072 -0.16714333 -0.10763598 0.44639483 0.32021723 -0.21885134 0.40070014 0.00055170 -0.12511063 -0.73066350 -0.18076643 -0.57374200 -0.21939269 -0.08446547
冒汗 -1.03034608 -0.39281400 1.15692540 -0.87177232 -0.11941043 -0.87310092 1.21900272 1.59624826 0.30271651 0.63142267 0.34206831 0.17968037 -0.72720172 0.43564495 -0.00804741 0.08042936 0.00398229 -0.56841562 -0.02843762 -0.19398509 -0.03364664 0.36765205 -0.45737385 0.15148403 -0.72363152 -0.26238687 -0.51772828 -0.32183093 -0.03907174 0.35160612 0.32182117 0.24772435
天女散花 -1.53095849 -0.09932227 0.68237725 -0.09614980 -0.60739750 0.85824808 -0.19214167 1.20910064 0.74537562 -0.06180288 -0.47080207 -0.05650182 0.50829012 -0.67048750 -0.03866813 0.16010638 -0.57361859 -0.75704026 0.16636927 0.45850109 0.47395559 0.66407731 0.08447592 0.68714168 0.29964594 0.31173443 -0.05156982 0.39162364 0.25135350 0.40034798 -1.06052582 -0.64535359
黄金贵 -0.89548168 -0.03328561 -0.11507755 0.44570126 -0.23243252 -0.40772048 -0.51669385 -0.06773687 -0.55401308 0.20497501 -0.30952334 -0.10550659 -0.34874080 1.08684659 -0.84814377 -0.04864414 0.26669950 0.28364979 0.03766133 0.57305844 0.04154591 -0.20691046 -0.41188899 0.03231206 -0.23347613 0.17571374 -0.86099848 -0.08524878 0.85892499 0.13630326 0.56769018 -0.25329856
于泓源 1.05369214 -1.10757288 -0.59151155 -0.72238538 0.63016857 -0.61915248 0.11137269 0.00362711 0.41808954 -0.30178115 -0.06660367 -0.24453880 0.22652155 -0.35572207 0.46312910 0.06670186 0.02342991 -0.52558037 0.00553619 0.26267423 0.01718355 -0.03607022 -0.47204399 -0.08459669 -0.48690524 -0.30714496 -0.23553799 0.36883398 0.32319671 -0.15619128 0.19627948 0.17324331
双眼 -0.82585428 -0.43573341 0.66666534 -0.30239284 -0.01829269 -0.50657814 0.90342982 0.60252261 -0.42258094 -0.70138041 0.26325874 0.31927545 -0.67564260 0.78182507 0.31904077 0.52136788 -0.21939607 -0.16420922 -0.52525591 0.53150283 0.03352356 0.07442966 0.03222375 0.15062177 -0.35603417 -0.30745494 -0.37100605 -0.22801943 -0.49947050 0.31879229 0.20968489 0.45681886
李根京 1.87170537 -0.09708772 -0.02229941 -0.06620097 -0.26890610 0.32293272 -0.04683371 0.02162127 0.17586567 0.62645107 0.87347826 0.13876028 0.54803508 0.02432703 -0.22822743 -0.34667845 -0.69034154 0.22228066 0.13989288 0.10630083 0.02600540 0.20460897 0.10063489 -0.15675049 -0.60668556 -0.17814051 0.81977272 0.06052176 -0.04012561 -0.25925080 -0.18982415 0.01850569
李丽芳 0.43717435 -1.15376343 0.83408155 0.12323651 -0.67235933 -0.20257465 0.38575564 -0.15870406 0.42973406 0.47212823 -0.65004366 0.15848824 -0.16145613 -0.50457484 -0.70405502 0.19512192 -0.32735473 -0.56052197 -0.22751348 -0.29698385 -0.09649500 0.18076920 0.40554987 0.88819605 -0.37299092 -0.16301233 0.40139756 -0.07277546 0.17015243 -0.04027939 0.28119718 0.19152107
林宣根 -0.16514969 0.63092352 1.07076801 0.94204986 0.41668885 0.37001008 -0.29240215 -0.27007816 0.84311419 0.41279758 0.51278583 0.04846920 0.81425204 0.85405319 0.27150860 -0.45774212 -0.45217770 0.03010336 0.37943327 -0.69528711 0.57249023 0.03747352 -0.38133236 -0.04570468 -0.16321075 -0.16662920 0.28128405 -0.18539397 0.46538786 -0.50811565 -0.16419346 0.16452922
民和回族土族自治县 -0.15391373 -1.56442627 0.09126149 -0.22987596 1.75693157 0.82095313 0.51919579 -0.08857023 -0.26338997 0.42754563 -0.06029102 -0.07984306 0.62039498 -0.46765630 -0.45979054 0.29366678 -0.63769435 -0.09505558 -0.58000077 0.46883157 0.22086383 -0.33127282 0.47505702 0.22500348 0.14258104 0.24574301 0.25184838 -0.19812633 0.00616138 -0.22867936 0.05379277 -0.30310605
美食城 -0.87056398 -0.40069015 -0.37407049 -0.14838117 0.69658007 0.78109719 -1.57288106 0.12016299 0.42422556 0.51165323 -0.77446724 -0.63888448 -0.20089086 0.13360164 0.46825642 0.59853390 0.24601425 -0.66912084 0.72560742 -0.37581361 -0.19198014 0.08826828 -0.07600967 0.49486355 0.42557844 0.31583840 -0.34354105 0.14618483 0.19028219 -0.37532793 0.04392805 0.56994367
吕氏 0.02556660 -1.07384443 -0.06334645 -0.81599265 -0.89754586 0.97720321 -0.27381402 -1.10537772 0.35845793 0.21698485 -0.09188357 -0.41810988 0.21979587 -0.34756728 0.01932261 -0.08987235 -0.41461894 0.25027717 -1.24913729 0.13116828 0.46387820 -0.24278707 0.11184674 -0.03369714 0.34238200 0.29878377 0.56443080 0.32233216 -0.02609753 -0.25436379 0.35420606 -0.69660595
华商建言 0.25325649 -0.33881759 -0.28489202 1.46266449 -0.38424283 0.37824598 -1.12603464 0.36233138 -0.45143320 -0.59526940 0.21963105 0.27359222 0.04557149 -0.10878136 -0.46165471 -0.04655561 -0.09214454 -0.22856120 0.26791106 0.25006092 0.03326495 0.16103975 0.17389982 -0.18929308 0.17646217 0.00967580 0.08006920 0.38092697 -0.26600608 0.10230284 -0.30001149 -0.39870412
编码机 -1.00874089 0.85704852 -1.18358250 0.65174919 -0.65385823 -0.36484291 -0.02194583 0.20061043 0.76791828 -0.49920179 -0.42942283 0.47964212 -0.57410372 -0.10415822 -0.23148344 -0.21291868 -0.62529067 0.10664506 0.38818679 0.27770771 0.71071096 0.43342305 -0.15050185 -0.08918596 -0.19728666 -0.29538242 -0.21017860 -0.05844156 -0.12660341 0.05264271 0.19908435 -0.35513497
满洽 -0.31594470 0.19157951 -0.62883189 0.11268041 -0.04178725 0.25054508 -1.43856049 0.50810335 -0.38372179 0.56919312 -0.25915548 0.80360757 0.08258186 -0.11752741 0.21716805 0.38977779 0.63659185 0.36138859 0.67412543 0.75903338 -0.08845932 0.73678210 -0.22437357 -0.66008280 -0.18327972 0.04940220 0.04829916 -0.36515745 0.12237734 0.78633280 -0.08687131 0.12438889
离 0.14349886 0.00855416 -0.07393800 -0.41840458 0.43368361 0.39429925 -0.19041130 0.27503708 0.07797721 -0.24081940 -0.30373234 0.33839725 0.09066658 0.46576987 0.24565792 -0.42335475 0.06183126 0.34467871 -0.06087570 -0.44650802 -0.22015911 0.49493180 0.19718085 -0.34888517 -0.30478985 0.17094131 -0.13332437 -0.75145598 -0.18151394 0.16234801 -0.09757589 -0.21664043
局部 -1.14322486 0.47207253 -0.51919568 -0.22257894 0.34863984 0.24852731 0.57036174 -0.41118970 -0.19494343 -0.50948538 0.55378802 0.97012460 0.69484064 0.34233271 0.12524776 -0.33449081 -0.19280093 -0.51364242 0.03517279 -0.67067518 0.12731748 0.15667843 -0.50964505 -0.16286074 -0.72026167 -0.39949228 -0.02586414 -0.42034612 -0.49013504 0.11293097 -0.09357011 0.09894313
顾客端 -1.04129383 0.08032991 0.08415980 -0.75587015 -0.66291756 -0.13643281 -0.34728664 0.83945514 0.43831909 0.68835758 -0.46156604 0.01925195 -0.88755436 -0.64008632 0.05850346 0.18931317 -0.11996557 0.43926447 0.15694680 0.14537296 -0.00193338 0.17006118 -0.10725533 -0.18866840 0.14448114 -0.06852917 -0.03153667 0.16938259 -0.01340089 -0.48284065 0.10424293 -0.05042035
牌匾 -0.72423402 -0.44797136 -0.24743069 -0.48268321 -0.07637417 0.31166959 -0.49879785 -0.38301589 0.89095824 -0.03657362 -0.24186924 -0.40114946 -0.36801738 -0.49687827 0.34116466 0.47535983 -0.30622470 -0.04192304 0.24862711 0.78223378 -0.82847437 -0.08943014 -0.48768942 -0.51671957 0.79952465 -0.12462489 -0.68399273 0.64871573 0.00475137 -0.18625341 -0.37377658 0.41198499
萨多维 0.16432926 1.49313798 1.28799650 -0.41615657 -0.32811719 -0.23787953 -0.07527439 0.09528540 -0.84257355 0.59200659 -0.55113318 0.37791496 -0.31450520 0.06901952 0.65471972 0.29665378 -0.84443521 0.05942974 -0.69564803 0.88326590 0.17126063 -0.82359214 -0.13247241 0.65156779 0.37561807 -0.27043709 -0.41455305 -0.59014515 -0.58595647 0.48797042 -0.47344802 0.22923049
分期付款 -1.01436232 0.66520624 -0.90419437 -0.37911563 -0.03518432 -1.06976642 -1.55970067 -0.34421704 0.16321333 0.70392549 -0.32131556 0.13315595 -1.50061576 0.05345494 -0.04405927 0.44578373 -0.00378903 0.38430383 0.14774761 -0.54256650 0.67787837 -0.29001465 0.20566280 0.66376209 0.10814172 0.36156884 -0.04318213 -0.09592270 -0.40940619 0.46518596 -0.40136168 0.02319556
收留 0.33298420 0.11127900 0.63024392 -1.30990289 0.53451841 -0.03956939 -0.21824132 -0.72721172 -0.67798358 -0.28310200 -0.04767159 -0.25154964 -0.88200616 -0.58050925 -0.66017195 -0.34142339 0.36744426 0.15343546 0.14207518 0.02385125 0.12266809 -0.28042064 0.17635348 0.25317602 0.37429971 0.19682824 0.22149473 -0.44883807 -0.38416257 0.52394406 -0.15265643 -0.03654082
东晋 -0.90123508 -0.78048487 0.18736872 -0.00446015 -0.69035603 1.84419350 0.08441064 -1.19296866 0.12172766 -0.48908630 0.34537739 0.01813299 0.60872618 0.28499536 0.78271739 -0.16419140 0.58839864 0.85702949 -0.50649781 -0.37383164 0.19350627 -0.45533696 0.49814832 0.37886674 -0.19671618 -0.04639299 -0.38194666 -0.64231215 0.49204504 0.23085836 0.19160745 0.22843387
陈志超 1.20150161 -1.21522842 -1.16573027 0.41599839 0.04335976 -0.09463551 0.47686097 0.81177830 -0.48270885 -0.32102085 -0.37118680 -0.10682418 -0.36658273 -0.09792016 0.49710221 -0.53437776 0.43525755 0.50907265 -0.35095886 0.32593485 -1.22759309 0.19881279 -0.12697889 0.40549585 -0.08581929 -0.64613602 0.74651270 0.24175248 0.12209483 0.05896402 0.17084046 0.46115198
梅罗 1.03651962 0.98975228 0.19245667 0.25913708 -0.19234013 -0.07101949 0.90843565 -0.05687393 -0.84270236 -0.14923617 0.26257715 -0.83071669 0.35857445 -0.12629387 0.12764228 0.12351318 -0.09789057 0.23412632 -0.04300305 -0.55123398 0.46045662 0.18863467 0.06178608 0.00690493 0.35157305 -0.63722754 0.14429149 0.66132108 -0.01964974 0.31390980 0.57717539 0.12227900
许树仁 0.20384363 -0.95741065 -0.33039444 0.14053108 0.27829373 -0.42322090 0.44613780 0.55825099 -1.04085133 0.14664437 -0.82598897 0.03289862 -0.06656918 -1.04858941 0.47095151 -0.07446788 0.47121727 -0.14333473 -0.22771756 -0.13032546 0.44553673 0.26171610 -0.10321061 -0.46974997 0.16188287 0.75797447 0.31002205 0.56896711 -0.07825063 -0.01738230 0.22673945 0.21475881
利用成熟 -0.46640287 0.53453665 -1.26035718 1.10849615 0.26639897 -0.80874455 -0.10588419 -0.04367348 -0.69523144 0.42757697 -0.04792973 -0.25126091 0.83590843 0.01785081 -1.04177993 -0.13499087 0.02298059 0.03854293 0.01327859 -0.00727911 -0.01282698 -0.13372712 -0.12807703 -0.78894226 0.17343653 0.37851837 0.84778477 0.14902862 -0.33161131 0.30250180 -0.33155498 -0.15037988
郑泽生 0.27834488 -0.93880302 0.11226352 -0.91354271 -0.25999978 -0.19356146 0.13757478 -1.68714697 0.82206988 0.82931762 0.65319637 -0.03956535 0.02788021 -0.46753629 -0.08602118 0.31812999 -0.20060712 0.43425563 0.16000137 0.21056374 0.65557847 -0.00263069 -1.17548510 -0.19340244 -0.49922939 0.12571867 -0.61263984 -0.14293346 -0.07156611 0.10676255 -0.20221814 -1.00304885
王新南 -0.12996340 -1.00385715 0.13899170 1.23966021 0.75633808 0.38106131 -0.78004518 0.53300867 -0.35170966 -0.81897060 0.59849635 -0.02846262 -0.39707196 -0.42328223 0.21078955 -0.15312128 0.06684489 -0.10167238 0.12672891 0.01359908 -0.19912694 -0.27179510 -0.14365656 0.06934859 0.06711636 0.21288537 -0.01225694 0.15373531 0.22179518 0.06355268 -0.13807692 0.07931805
飘然 -1.92513967 0.05020516 1.07433491 -0.12656477 -0.07394607 0.43470932 0.11214991 0.87882755 0.22591501 -0.49934892 -0.16143298 0.34387697 -0.06893702 1.15273247 0.52484542 -0.10468769 0.58974081 -0.72241281 -1.20971546 0.04774948 0.15010546 0.62556295 0.73426809 -0.09595828 -0.36396400 0.24377452 -0.07347141 0.15724552 -0.28618150 0.11169135 -0.77092686 0.04418710
图尔西·拉尔·阿马蒂亚 1.44887264 0.39858192 0.01426439 -0.43247540 0.09935375 0.75959710 0.18042918 0.14914666 0.66422773 0.61047984 -0.03157275 -0.12051588 -0.66752644 -0.48711395 -0.90527999 -0.61003220 0.54000653 0.44385535 -0.07806352 -0.05998234 -0.57538515 -0.20389576 0.24114113 -0.24099691 -0.08315600 0.60707225 -0.12884348 -0.34431165 -0.09925559 0.13527721 -0.03516245 0.00930365
大吃大喝 -0.87402240 -0.45079843 -0.03009935 -1.51064081 0.15680547 0.02955923 -0.47209380 0.16848671 0.88562430 0.43436723 1.00509685 0.66785809 -0.45800151 -0.62500656 -0.10734616 0.56307002 -0.50921627 -0.32757186 0.25691376 -0.17507408 -0.56170770 -0.27293356 -0.81494029 0.60433635 -0.15232764 0.72765272 -0.05644494 0.07695452 -0.08251872 0.07725961 -0.07517641 -1.16143642
巨擘 -0.13593204 0.16644017 -0.30045452 0.71572284 -0.83627827 0.58211419 -1.19595875 -0.08296660 -0.24952039 -0.33019430 -0.15877748 -1.28236847 -0.12521073 1.06282231 -0.68477518 0.08197249 0.28922409 -0.74625184 -0.20592883 -0.33346542 0.14218778 -0.18741730 0.22612722 0.24110868 0.34728475 -0.59182403 -0.33957787 -0.22831005 0.28636178 0.31540633 0.29062739 0.22679353
奇加 -0.36785345 0.26606293 0.95171768 0.30379971 0.60376668 -0.03130305 -0.15049000 0.38529325 -0.08313784 -0.09447315 0.46722187 0.04510779 -0.04767386 -0.04507011 0.01965258 0.31667011 0.02960442 0.50016800 -0.30810134 -0.08284373 -0.13239767 -0.21005355 0.15828743 -0.41411151 0.32954385 -0.21342585 0.25853565 -0.41128079 0.10889701 -0.19964271 0.06166708 -0.03764316
布勒特 0.93897163 0.07544093 0.06170153 0.65568050 -0.25638833 -0.05536855 -0.53528102 -0.01545779 -0.01846314 0.48729040 -0.05442174 0.52892058 -0.22598553 -0.10930053 0.17445892 -0.64736841 -0.10942458 -0.12475428 -0.07956850 0.27196029 -0.16615904 0.01531430 0.10121791 -0.46235272 -0.18294956 -0.14073400 0.00679504 -0.26003496 0.00603992 -0.18005836 -0.26817065 -0.02545043
艾森施塔特 1.87346924 0.39670513 -1.05955471 -0.07848040 -0.22150556 -0.42115358 0.36889150 0.99821142 -0.32602205 -0.26555701 0.14548737 -0.34067703 -0.56638158 0.55438220 0.47226675 -0.45440964 -0.24706962 -0.45780988 -0.20279428 -0.28203596 1.02187160 -0.51437988 0.18731417 0.65299147 -0.02390017 -0.20713024 -0.19641196 0.08630955 -0.03995278 0.50571144 -1.26851550 0.01474696
联氨 -1.30489185 1.29567236 -0.85017722 0.18224510 -0.18288671 -0.35197368 0.71792584 0.13476656 -0.45662197 -0.39235352 0.04808905 -0.09150359 -0.30650674 0.11116380 -0.36765954 -0.08551963 0.14238288 0.01429458 0.17513918 0.01596560 -0.03014837 -0.12479009 -0.16242414 -0.77379129 -0.08841250 -0.14768351 -0.07509204 0.48091132 -0.23634778 -0.41623299 0.04223532 0.09664791
刘德荣 -0.85461159 -1.45592455 -0.00714847 1.54816213 1.57221837 0.22335396 -0.02379601 -0.15649396 -0.88005352 -0.24235961 1.03964343 0.10066289 -0.02651736 -0.15381736 0.06175683 0.29526898 -0.10911401 -0.12032877 0.27067909 0.18117860 -0.62363645 -0.40620049 -0.06381305 0.14262305 0.09249777 -0.29328302 0.26056944 0.30724979 -0.14041408 -0.01222659 -0.17779876 0.08329697
出勤率 -0.68425675 -0.08313232 -0.98302432 -0.22929259 0.41998996 -1.04602591 0.16437957 -0.00329035 0.36276126 -0.00289210 -0.58321527 1.69966911 -0.03044255 0.83370376 -1.13649719 -0.21010053 0.03324113 0.08912205 0.52207545 -0.14253050 -1.27201727 0.36792064 -0.12017005 1.04025554 -0.62463440 0.13428268 -0.92736812 0.36348225 -0.15752943 -0.81365052 0.00412850 0.02733358
娇媚 -1.16898913 -0.50522557 1.74653096 -0.26187141 -0.58248661 0.77216855 -0.53255648 0.36990170 -0.10476434 0.02233619 -0.18763259 0.10293251 -0.39960097 -0.09974210 0.10181668 0.38727095 -0.02311905 -0.86220200 -0.66779471 -0.14549086 -0.12720949 -0.21099704 0.67580195 0.19827217 -0.36075236 0.30479039 -0.31506492 0.45929692 -0.80800083 0.19260798 -0.18816346 0.29368825
高自忠 -0.27928591 -0.46971674 -0.23999038 -0.85421163 0.63372230 -0.29108937 0.21349908 0.00559877 -0.50621366 -0.41012388 -1.14262025 0.36134394 -0.08870982 0.12896249 0.07579243 0.14605729 -0.52305345 0.80333321 -0.38400659 0.02808317 0.37189210 -0.37158619 0.04432244 0.14794753 -0.05072223 -0.66370470 0.28253183 -0.33714225 0.12415662 -0.61737061 0.05960130 0.07564493
剑帼苏 0.62287333 -1.40395452 -0.31661156 0.32174447 0.38733663 0.10493450 -0.78392627 0.70471931 0.43803254 -0.56541431 0.56841641 -0.03115344 -0.41266936 -0.07291377 0.36904207 -0.67126347 -0.36654580 0.72191913 -0.27041966 0.01764927 -0.09551707 0.24639286 0.99216194 0.15490642 0.28697701 -0.32560928 0.18035582 0.10882924 -0.49528175 0.42275450 -0.00606535 0.15903020
代赫利耶 0.32009134 1.44088275 0.99044883 0.37353628 0.59606460 0.01127256 0.11431928 -0.32447918 -0.78623580 -0.05739596 -1.05090428 0.94366221 -0.03582928 0.47586629 0.85021272 0.36583230 0.23536667 -0.38110695 0.02784205 0.73603263 -0.29288171 -0.25034539 -0.21117963 0.90434612 0.10418876 -0.22056593 0.22476790 0.64817457 0.29534609 -0.01374912 0.32155753 0.10708351
李显扬 0.80684979 0.28846843 -0.44860107 -0.62289886 -0.91034740 -1.33958345 -0.97841682 0.24003636 0.88553691 0.77901035 -0.52810229 -0.40115087 0.20465535 1.10561361 -0.26064523 0.27291141 0.72192729 0.26589847 -0.26478515 -0.38694418 0.27157151 0.02496514 0.39730075 1.06111041 -0.09880343 -0.25543296 -0.43844865 0.11966203 -0.79165809 0.04355654 0.85718304 0.50307926
克里斯蒂娜·佩尔松 1.13799255 0.25271375 -0.55434932 0.30604566 0.25159038 0.03964516 0.02829675 0.03643802 -0.57601829 0.09678660 -0.21645542 -0.18818237 0.10084265 -0.04914618 0.04728096 -0.25989019 -0.57250189 -0.27580107 -0.33533445 -0.42902012 0.18049589 -0.25409718 -0.34782896 -0.18548185 -0.15406267 -0.05041884 -0.30553489 -0.11859127 -0.09553926 -0.13833646 -0.42029939 -0.05834272
李渤 0.02565383 -1.11895897 0.22126992 0.72821167 -0.67149497 0.30404688 0.71954613 -0.69748095 -1.31574830 0.59412944 -0.42216037 -0.32773416 -0.15428071 0.53575519 0.62679799 -0.65547279 0.15669748 0.12527570 -0.51688930 -0.03870514 0.15241263 0.08173504 -0.12181042 0.33283709 -0.04913277 -0.08776987 -0.65224471 -0.42764029 -0.50395434 -0.48376499 -0.50871759 -0.27819306
绿豆 -1.85274297 -0.13875774 -0.03281173 -0.35891333 0.03927066 0.10235734 0.47495068 -0.07512924 -0.57943728 1.34488538 0.24789318 -0.12680168 -0.73338382 -0.41195526 -0.04697255 -0.17541927 0.71681940 0.05797406 0.36097466 -0.43745082 0.17580863 -0.32630197 -0.62193053 0.07639463 0.59097966 -0.61582502 -0.53477502 0.07632627 -0.04461729 -0.41518158 0.11451746 -0.06013168
铁山港 -0.13173234 0.26504267 -0.45891299 0.34612736 0.85962669 1.33915599 0.26724864 -0.36328390 0.48842312 0.77422269 -0.34306209 -0.33768950 0.71205836 0.12676670 -0.19156727 -0.28484680 -0.48075636 -0.45990206 0.15850487 -0.12559377 -0.16586812 0.07456365 0.49222097 0.02392387 -0.25051429 0.36038610 -0.33213423 0.13455435 0.21040400 0.02911132 -0.16633586 0.03663610
岩波 0.00089446 -0.74865264 0.26016248 -0.67355202 -0.44573875 0.34768336 -0.21531297 0.15757411 0.35312498 0.34197300 -0.49531013 -0.65428535 0.31721888 -0.45281563 -0.29409316 0.31361087 -0.40536746 -0.15012737 -0.16844568 0.30553306 0.56896039 0.46413309 0.21836880 0.11930126 -0.21174674 -0.60800924 0.87821335 0.02374722 -0.28448956 -0.27154958 -0.51513357 -0.34874407
伪科学 -0.91405774 0.32579876 0.11131805 -0.29805563 -1.59696093 0.00017194 -0.19249496 -0.32676424 -0.14100156 -0.70418430 1.33471086 0.42016740 0.01008271 -0.84027786 -0.04431089 -0.57238957 -0.13589642 -0.81302324 1.46982608 0.31325766 -0.83536482 -0.72233073 -0.61540050 -0.20949639 0.95329280 -0.32970248 0.05962178 0.23069142 0.03180504 -0.00284754 0.58843006 -0.62520770
蓬塔什 0.54531082 0.96900698 0.82486179 0.98638049 0.13917175 -0.41910717 0.32257311 0.33122416 0.08060884 0.08194649 0.25875946 0.13604217 0.17704883 0.17473821 -0.14028516 -0.07010058 -0.75641958 0.35561854 -0.46048664 0.33262862 -0.12105243 -0.14977246 -0.34606226 -0.29842725 -0.13075803 -0.13038487 -0.18033996 0.28345336 -0.21711635 -0.00443982 0.04639909 0.16324916
付玲莉 -0.01236418 0.46657703 1.63349122 1.72085014 0.65724795 -0.87922604 0.41164550 0.08561388 0.33436002 0.34775859 -0.26896036 0.11815819 0.34344053 -0.24935524 -0.49369447 -0.51456766 0.11338529 -0.27398639 -0.01488454 0.18467198 0.63779312 -0.27007826 -0.46774113 -0.14929281 0.03141919 0.14594006 0.00185286 0.75615765 -0.51573329 -0.77263738 -0.49808937 0.53218319
作伴 -1.35269436 -0.56859525 1.32352819 -0.49744598 -0.28091549 0.10244278 0.06555115 0.49394475 -0.06625726 -0.22039891 -0.74476491 -0.13578504 0.35561952 0.37905255 -0.43218410 -0.88932279 0.22614884 -0.10694373 -0.51116765 0.10957290 -0.65278468 0.61791539 -0.12542523 -0.19955347 0.24839445 0.31030013 0.41364323 -0.04405626 -0.29973823 -0.23862430 0.69349592 0.31625024
冰雹 -1.56961124 0.46729706 0.23794363 -0.52664164 0.99355118 0.36667880 1.36053049 0.52448846 -0.03749641 -0.27043750 0.37678190 1.12954686 0.09021480 0.13682547 0.04804936 -0.59658982 0.23180906 -0.84399305 0.55823178 -0.38685455 0.65344493 0.40566791 -0.81139993 0.29129697 0.48957460 -0.73839410 -0.96375485 -0.21740920 -0.60731139 0.09440593 -0.34521816 -0.93886771
马加良斯 1.74596771 1.01155137 0.19498290 -0.25402300 -0.24848143 -0.08807734 0.04681759 0.27312629 -0.18186704 0.51135135 0.46033027 -0.30201956 0.14004129 -0.34034780 0.58996492 0.23057795 0.10500780 -0.03822591 -1.20661312 -0.18480204 0.23452611 0.13106485 0.82199540 -0.14854767 -0.48466741 -0.08766790 0.02100771 0.59314370 -0.00015743 0.21912963 0.08414523 -1.01982305
匿迹 -1.38807100 -0.36138001 0.28603932 -0.38227512 0.08791287 0.66073529 -0.54124520 0.47472593 -0.44674302 -0.94561134 0.99165215 -0.49041672 -0.07461555 -0.47371371 -0.03236971 -0.04151538 0.50531257 -1.02653731 -0.24933825 0.46711160 -0.19953049 0.47448972 -0.13186981 0.13304787 -0.39650101 -0.71997979 0.00223342 0.02712813 0.08423265 0.25102893 0.21574228 -0.32851117
苏燕 -0.00890403 -0.72004980 0.94036396 0.13414290 0.24264479 -1.29904378 -0.14960677 -0.46720132 -0.09405031 0.43641078 0.60792449 -0.00216864 0.00279644 0.72839291 0.21238956 0.25049466 -0.02938122 -0.40965911 0.04879837 0.05873438 0.70872493 -0.18641532 -0.32491273 -0.17318475 0.78962331 0.18675952 0.49644327 -0.11427986 0.65084675 -0.78622420 -0.18012842 0.63363856
口碑 -0.66295054 -0.08169219 0.59748447 0.05130176 -0.48198572 0.12626039 -1.27506856 -0.09878534 -0.05010927 0.49079544 -0.29098402 0.20137055 -0.12463362 -0.68330828 -0.43026151 0.09515182 0.18186612 0.46432052 0.18662012 -0.23493455 -0.37749626 -0.30533847 -0.14058560 0.04943953 -0.17931389 -0.10664700 -1.04071476 0.47144978 0.05251359 -0.81222603 0.62015185 0.36251210
高新产业 -0.68455560 -0.18811475 -0.84024651 1.13226144 0.52842093 -0.23423951 -0.63740027 0.00755998 -0.52453632 0.37232037 -0.25571226 -0.11055386 0.22735894 0.13052970 0.19251530 0.12220433 -0.44967581 -0.96559306 -0.05396641 -0.38619118 0.27408335 -0.26472855 1.02736446 -0.37719689 0.41061348 0.08413914 -0.03704299 0.45868151 -0.01261916 0.87151475 0.20098815 -0.00970931
吴旭生 -0.34463496 -0.46561910 0.53817483 0.01302003 0.29820867 -0.22781725 -0.10093233 -1.29979108 -0.31637413 0.04537155 -0.17385049 0.03786443 -0.06777047 0.18742583 -0.13640524 -0.23656716 -0.62852189 0.04786496 0.15535775 0.19783401 -0.51030275 0.05429451 0.25366870 -0.04307243 -0.04302087 -0.08232829 0.46734208 -0.05518501 -0.16389658 -0.27448487 -0.19338843 0.39293556
第三百八十六 -0.18673696 -0.19081582 -0.37327770 -0.27873683 0.18760027 -0.20825257 -0.32340042 -0.65066343 1.45754998 -0.59331237 1.25546116 -0.01507207 -0.18202826 -0.50248326 0.75629214 -0.31020488 0.31441871 0.26692539 -1.35690504 0.30798751 -0.14591406 0.20923646 -0.28031247 -0.07481319 0.58451732 0.91541561 0.15436527 -0.51473615 0.37836605 -0.21104318 -0.21044135 0.20875699
陈天立 1.17844238 -0.46402533 -0.38247276 -0.56096463 -0.72024689 0.26523198 0.07489152 0.11742053 0.20028739 0.46408244 0.03126245 0.09390517 -0.01031486 0.10516278 0.12042639 -0.08591447 -0.02567260 0.39525571 0.02398098 0.09475048 -0.25269367 -0.12979444 0.29189729 -0.16019431 -0.30345939 -0.13200660 0.10285853 0.46508468 0.00372865 -0.01912995 -0.22767694 -0.02957143
百分之十四点六八 -0.24350896 0.79898439 -0.08923577 0.15921137 0.79777562 0.04780204 -0.65365087 -0.63293741 0.11139712 0.64492078 0.21598950 1.59880520 -0.54878775 0.53520262 -0.98272910 -0.06196995 -0.11605922 -0.03754250 -0.40470907 0.06882488 0.52961226 0.21768748 -0.60480833 -0.26828900 -0.56105968 -0.21814439 0.08564359 0.06653784 0.26292336 0.42772219 0.22735312 -0.09689348
克·西莫内 1.70470420 -0.14522839 0.10330481 -0.49568062 -0.75620281 -0.12632457 -0.46377089 0.93245112 -0.17560242 0.12112048 -0.28262174 -0.13821533 -0.46390170 -0.06175767 0.26865263 0.51753906 0.33774079 -0.16344534 -0.36242458 -0.31812256 -0.32818603 -0.08775321 -0.80671225 0.03710475 0.49022873 -0.23930021 -0.19458028 -0.23755880 -0.13335820 -0.03861217 -0.00993638 -0.17311797
张占奎 0.31490714 -0.80785121 -0.76604214 0.41542405 0.24795112 -0.10890627 -0.79432216 0.44228902 0.15908255 0.39602941 -0.83545888 -0.66238096 0.53708050 -0.57499434 -0.16640751 -0.09236803 0.67672565 0.01793992 -0.22948412 -0.07993229 0.15123352 0.30176302 -0.09026943 0.14990157 -0.40513269 0.30963134 0.10248789 0.07455587 0.03428386 -0.04613769 0.43547933 0.21872162
易新群 0.62476125 -0.86314954 0.23340171 0.04595794 0.27230449 -1.05207845 0.52146153 -0.21199670 -0.11015254 -1.25225143 -0.25585964 0.60926672 0.02716081 0.65817149 -0.76453664 0.07408725 0.25567153 -0.03301352 0.80405030 -0.20908098 -0.43340130 0.22488135 -0.18243615 -0.16590472 0.14471445 0.61406161 -1.23554270 0.48137142 0.84087750 -0.22376896 0.17550869 0.51887388
土堤仓 -1.58159721 0.02757936 -0.80712973 -0.35527722 0.85245928 0.36651864 -0.00081372 0.78632565 0.20775166 1.03749394 -0.38760413 0.38355184 -0.21575744 -0.45461496 0.28316159 0.27914236 0.16496016 1.08859419 0.29775709 -0.27904179 0.17693953 -1.23582129 -0.17787219 1.07126239 0.22760958 -0.18100960 0.22398005 -0.05914052 -0.43639923 0.16380913 -0.07634552 -0.02854889
土产 -0.68609941 -0.82929314 -0.23116514 0.07422585 0.24749034 -0.05508255 -0.36250083 -0.40825890 0.22348811 1.02599968 0.18770620 -1.00633954 -0.37764398 -0.97959361 -0.55797888 -0.24175683 0.77662637 -0.51615186 -0.22917649 -0.07788543 0.13517873 -0.22251751 0.00161256 -0.15113437 -0.32643505 -0.07898911 -0.21136188 -0.19939429 0.09433599 -0.67196142 -0.26210223 -0.05927496
刘兴利 0.95636111 -1.00210945 -1.09389652 0.11938658 -0.03647734 -0.65088173 -0.11853296 0.56873303 -0.18834863 -0.09900493 0.03693073 -0.33121421 0.45072094 0.02312422 -0.11661474 -0.30716389 -0.18366203 -0.22712478 -0.05459471 0.14683943 0.28025094 -0.35619728 -0.33387048 -0.04073589 -0.04389979 -0.24058388 -0.22138482 -0.13221507 0.25603319 -0.40274568 0.18593691 -0.12366683
巴厘岛 0.76407665 0.73506044 -0.15772196 -1.11035254 0.58231351 0.80808866 -0.51742022 -0.41912701 0.38597315 0.25441805 0.41029664 -0.39193996 -0.67535635 -0.09796421 1.09049034 -0.24093900 0.72276885 -0.72611540 0.71513137 -0.04720489 0.44019987 0.03748973 -0.39847855 0.06125325 -0.33722761 0.60523974 0.20825993 -0.25684405 0.55741917 0.19873322 0.71283911 -0.29470928
周秋花 -0.31447361 -0.25975750 0.16665835 -0.74905923 0.10885998 -0.48980030 -0.09500764 -0.57401394 -0.81366806 -0.50093314 -0.41991881 0.07074494 -0.32201905 -0.02287218 -0.18629950 0.07019976 0.20371239 0.06139153 0.12969817 -0.36043087 -0.10476404 0.10140018 -0.03192465 -0.29321874 -0.56366136 0.01924816 0.56228697 0.17187081 0.58910713 0.06236938 -0.15166835 0.07493761
科特兰德 -0.21372526 0.58955657 -0.10340945 -1.54824903 -0.33862811 -0.44546828 -0.12731491 -0.36934865 0.38387889 -0.36362044 0.15292517 -0.74509840 -0.52332019 -0.04721728 0.53950129 -0.69210826 0.11648707 0.08190632 0.61959030 -0.22285540 0.38691357 -0.14537085 -0.09604360 -0.42018627 -0.47557250 -0.21419683 -0.05699796 0.23097144 0.57758352 -0.07359146 0.04292607 0.04021862
克尔斯塔季奇 -0.06120760 1.22422656 1.05095790 -0.03147063 0.28754442 -0.90038016 0.17401402 -0.44030775 -0.01342665 0.07921929 0.31453265 0.04354967 0.44405240 -0.59805920 -0.31376232 0.68176901 0.45355745 0.23800888 -0.46914228 -0.39627389 -0.24823594 0.38559436 0.07323198 0.09904645 0.12475219 -0.28229269 0.10330631 -0.10418742 0.04948674 0.08574661 -0.16473619 -0.22643890
贪求 -1.29856541 -0.36034356 0.31499159 -0.83193974 -0.71522184 0.12530372 -0.80777443 0.10046964 -0.34019574 0.19762881 0.54042117 -0.23857556 0.18049122 0.25037322 -0.16244609 -0.46443908 -0.58323096 0.11489160 -0.15615139 0.32827043 -0.48155339 -0.29390397 0.08557115 0.06976052 -0.16240527 0.13302067 -0.13747545 0.11975740 0.09317821 -0.31856929 0.45481265 -0.14722270
黄玉昆 0.74569561 -1.32709629 0.22264163 0.43007372 -0.72631057 -0.22978890 1.79513901 -0.92619355 0.56101792 0.05618206 0.71305241 0.83292187 0.08843300 0.42965420 -0.28357339 -0.32901861 0.49470164 -1.13420074 0.61950927 -0.16502481 0.03499604 0.00721461 -1.02562335 0.51478524 -0.06883726 0.65252953 0.18021247 0.10851779 0.53363899 -0.01223936 0.06986020 0.03601653
许斐平 0.29229483 -0.66251333 0.86780431 0.82160901 -1.24504351 1.15516516 0.71915313 -0.65782516 0.74597876 -0.06594269 -0.99726022 0.14028320 -0.29003325 0.96194811 -0.67284140 -0.03136708 0.71771823 -0.96224518 -0.15414236 0.13871615 -0.61983738 0.18152782 1.05688013 0.47775831 0.01257830 -0.18688260 -0.40247000 0.27878468 -0.18630775 0.20977700 0.53866068 -0.07266441
阿玛迪 1.69117909 0.05523255 -1.11935716 -0.18595215 0.18695467 0.30170135 0.24595198 0.06432527 -0.58638208 0.33061161 0.54881306 -0.43231733 -0.24726384 -0.30175501 -0.22890820 -0.55739678 0.02502168 -0.35863763 0.27042542 -0.46758955 -0.53539843 -0.01460577 0.23479157 0.61592044 -0.68085279 -0.38548971 -0.35273102 0.23483203 0.51691928 0.20042697 0.37367842 0.49531733
漫天 -1.33105444 -0.21456415 0.64045180 -0.62586349 0.50020393 0.71261459 -0.13394522 1.14623026 0.05955595 -0.61645527 0.15016927 0.32586394 -0.06516950 0.12064885 0.09791298 -0.02933356 0.41600258 -0.76244303 -0.54553121 -0.22173149 -0.38226698 0.56194907 -0.61203283 -0.09265648 0.42803555 -0.45356146 -0.26802760 0.04685248 -0.54673398 0.24888848 -0.55081773 -0.08091717
汤金 0.65200265 -0.61194673 -0.31874456 0.10553591 -0.81738721 0.07743174 -0.18382114 0.54842649 -1.41494460 -0.63230419 -0.20495894 -0.11276056 -0.47578516 0.11246272 0.75715539 -0.02494066 -0.20404124 0.14419229 0.16123151 -0.07852605 -0.24443420 -0.56545668 0.58380253 -0.41500319 -0.35532802 -0.30448346 -0.06157119 0.08062541 0.28695007 -0.22375823 -0.15217890 -0.04675078
老贝 0.57170169 0.32088187 0.41775054 -1.38267694 -0.29970693 -0.15014979 -0.59589656 0.36345917 -1.06343006 0.14192687 0.45508740 -0.27872886 0.59164972 0.48829575 -0.04412889 0.59889432 -0.25298365 0.07341266 -0.09554093 -0.22861807 0.85245046 -0.37877155 -0.45249983 0.37940477 0.25151950 0.29352790 -0.77007967 0.02411030 0.01162838 0.97664662 0.11938784 -0.14966940
郝新平 -0.20904810 -0.80459052 0.17635516 0.54272849 0.15841658 0.17511959 -0.41946735 0.54160247 -0.87287277 -0.76428681 0.62607726 -0.38027401 -0.71215981 -0.21024312 -0.34587938 0.02919175 0.20474545 0.10311340 -0.25652878 -0.18703178 -0.37746232 0.45814977 0.06389757 0.37026616 0.07294066 -0.05989772 0.16475110 -0.38921012 -0.03777345 0.37657690 1.09178596 0.19699585
营业室 -0.87057349 -0.57306533 -0.30228120 -0.53867410 1.18615754 -1.19469956 -0.35341954 0.10454364 1.30505274 -0.60235372 -0.60641320 -0.48346336 -0.23461299 0.39591286 0.49989706 0.40264685 -0.74820455 0.16218584 -0.51214005 0.05162306 0.07094498 -0.53410644 0.14664006 -0.23429310 0.71566303 -0.33498855 0.30100188 -0.34855688 0.04698449 -0.00418845 0.00198387 0.34926673
萨哈维 0.21549780 0.75470154 0.06786326 -0.34293574 0.05482978 0.04677003 -0.67429928 -0.00115289 -0.55712585 0.11752389 0.19154936 -0.42278537 0.46866257 -0.38140370 -0.35402410 0.03864254 -0.17074426 -0.19186172 -0.14194832 0.05882492 -0.15770790 -0.06608137 -0.07578736 -0.17832664 -0.03981868 0.03593364 0.16616666 -0.39560370 -0.25249263 -0.12528224 -0.19994782 0.14699868
若干 0.01372025 0.01201655 -0.87177212 0.09540073 -0.52602962 0.13631657 -0.31660152 -0.44280832 0.23261169 -0.25412257 0.25751195 0.36954864 0.13070681 -0.49712028 -0.08298121 -0.06945336 -0.73180094 -0.19520260 -0.19598473 -0.49824820 -0.18357156 -0.05388167 0.27571248 -0.02902438 0.20439314 0.35800191 0.37209199 0.00047363 0.41990317 -0.01206347 -0.42745521 -0.01990158
波尔塔 0.60203275 0.63409470 0.42166093 -0.09258788 0.60375096 0.19518831 -0.19528030 0.71320456 0.00609850 0.08673546 -0.10776027 -0.70730403 1.00922092 -0.77587347 -0.26341589 0.97323546 -0.53994818 1.05115809 -0.28089506 -0.31681317 0.68414502 0.73770695 -0.06656677 -0.06575564 0.16515163 0.02167494 -0.20811341 -0.19199432 0.00767835 0.79889770 0.57623535 0.77306856
千钧一发 -0.02027995 -0.41786777 0.76569635 -0.54581760 0.34141292 -0.74648473 0.61980888 0.98007889 0.50565117 -1.50084282 0.35577088 -0.07925957 0.58827373 1.01071938 0.02258300 -0.22614460 0.82377482 -0.19855892 0.09316283 -0.23416220 -0.04494774 0.25043784 0.11087448 -0.27522260 0.59761060 -1.09317111 0.31250732 -0.46533600 0.09009028 0.43891492 -0.10948616 0.52449733
伊犁 -0.66425544 -0.74524188 -0.01936718 -0.14753652 0.94625146 0.89693767 0.25515370 -0.19870006 -0.42289710 0.08308041 -0.55292389 0.46867910 0.71861913 -0.87112925 -0.67695569 0.12576022 0.58139065 -0.18437360 -0.62050006 -0.06698699 0.52711750 0.41779079 -0.10525990 0.03787066 0.04244038 0.05226279 -0.00924470 0.08561330 -0.21377392 0.11263655 0.02481098 0.08604831
尤尼奇卡 -0.12091693 0.15683995 -0.80066832 0.60301493 -0.26982382 -0.04173669 -0.28711383 -0.14748117 -0.50458493 0.05450377 -0.31744835 -1.03118360 0.05620601 0.15028725 -0.26774498 -0.36618937 0.22288315 0.02386803 -0.07109644 -0.25476967 0.19014154 0.02346906 0.05003489 -0.25469560 -0.18713260 -0.21676388 -0.12585429 0.30021484 0.05735548 0.08681740 -0.15106821 -0.56269871
欧济霖 0.29256348 -1.30326208 0.11833152 -0.12076596 -0.70791511 0.38009393 0.06150371 0.07300054 -1.04324091 -0.00056517 -0.51022706 0.14690214 -0.01652931 0.12431011 0.06717878 -0.51547757 0.22763815 -0.04535549 -0.03436844 0.17816736 -0.07190129 -0.44164773 0.14191900 0.12043992 -0.00185118 -0.33175840 -0.06802052 -0.10925639 0.16589956 -0.00207033 0.16364041 0.10192155
蛮 -0.68848030 -0.23190879 0.99110450 -0.63426949 -0.46824690 0.51314626 -0.13413502 0.55056064 -0.36774460 0.37649817 -0.15109090 0.01770580 0.27511656 -0.23165596 -0.24307646 -0.07195770 -0.40636350 0.20569582 0.06039179 -0.19698988 0.23910897 -0.10918876 -0.22207931 0.28704952 -0.49999951 0.34299380 -0.41879908 0.24151740 -0.10235289 0.19103257 0.30970769 0.07846452
工矿 -0.43861574 -0.36864043 -0.85880018 -0.11441774 0.82390862 0.42350288 0.01374152 -0.27101643 0.51987960 0.05783782 -0.14517400 -0.04022718 -0.04345299 0.25255916 -1.01705083 -0.36111448 -0.80819724 -0.69044618 0.19140635 -0.32801262 -0.29341218 -0.04077926 0.07620374 0.32691263 0.06286538 -0.45464391 0.43691239 -0.18306886 0.04741718 -0.39305708 -0.01862767 -0.60701387
砍刀 -1.21855612 0.51013719 1.06598074 -0.74015126 0.48115662 -0.01168027 1.06730247 -0.10696315 1.14318340 -0.38612990 0.35339837 -0.33208151 -0.51278126 -0.23226253 -0.65504378 -0.26630879 0.04296772 -0.48466381 0.30485034 0.47217979 -0.12073493 -0.99205800 0.31532051 -0.17659648 0.36558053 -0.52654040 0.07863729 -0.16430681 -0.27443570 0.26188061 -0.54723884 -0.29430490
四亿六千 -0.57029253 0.19910300 -0.28745793 -0.15887173 0.52550758 0.10933848 -0.72185629 -0.46186326 0.30271762 0.60534499 -0.07463553 0.25090931 -0.21412630 0.05892633 -0.48902494 -0.18905747 -0.34808380 0.25385531 -0.40278298 0.31127254 0.32521547 0.04478151 -0.17700335 -0.00391653 -0.06454430 0.12449337 0.16224746 -0.17370488 -0.28296859 0.38671574 -0.04715209 0.02210237
雨水 -1.70081852 0.10205541 -0.26726731 -0.20892391 0.60913996 0.24980015 0.76069804 0.51604733 -0.65557156 0.44705108 -0.24872998 1.01367282 0.21654160 0.21889514 0.34678526 -0.46744028 0.01777550 -0.22840201 -0.26885684 -0.88222576 0.15533184 -0.20197474 -0.57611930 0.37337107 0.39602852 -0.62746495 0.20328350 0.34431284 0.09816002 0.35736941 -0.20164490 -0.09831330
蝉鸣荔 -1.07829355 -1.00440997 0.22877914 0.13042476 0.34230610 0.31327334 -0.27021723 0.75141656 -0.00470535 0.58187337 0.10910011 0.31086284 0.10255328 -0.22114568 -0.29203094 -0.45769870 0.10560937 -0.07322727 0.33323440 -0.51515149 0.33159174 0.03844140 0.24991954 -0.33920389 -0.58925433 -0.19459170 -0.39179830 0.22699276 0.19837583 -0.03046141 0.13516156 0.06404006
藤田富彦 0.47783214 1.05003217 0.57917157 0.91755288 0.19932079 -0.06641034 -0.53166420 -0.24530227 -0.06830431 0.26876707 -0.32598473 0.12753144 0.03100188 0.28186004 0.61021626 -0.12141066 -0.08909462 0.10759153 0.39615835 -0.01007315 -0.05953544 0.23982024 -0.40339506 -0.39389025 -0.04217346 -0.28610333 0.35747643 0.25908220 0.10164828 -0.29581194 0.18219572 -0.14821815
邓文 0.57727002 -1.23976612 0.32457961 -0.16800015 -0.41959797 -0.01324449 0.46757023 -0.19994802 -0.65568488 0.36495616 0.14493313 0.57886921 0.01246476 0.00112272 0.09177707 0.05267529 -0.59090358 -0.18073076 0.05466136 -0.04211286 0.14388429 -0.32148043 0.54742236 0.45641706 -0.06003582 0.44825238 0.20045555 -0.14038877 0.47712845 -0.03808402 -0.20760971 0.29531067
十一点二九 -0.17731392 0.71296739 -0.87276660 0.16106281 0.67259569 0.26216267 -0.20702954 -0.55668853 -0.41787849 0.52805985 -0.08652198 1.42988131 -0.08591443 0.50902035 -0.90444528 0.08684530 0.15146440 -0.56009835 -0.33442200 0.26227078 0.35570448 0.24114331 -0.02258184 -0.62198649 -0.61744292 -0.27233626 -0.45105396 -0.23283966 0.40623319 0.19367231 -0.21966942 0.35012200
客户端软件 -0.89122085 0.80092257 -1.22380446 -0.38180935 -0.13539514 -0.96292833 -0.31051374 0.02314720 0.37228424 -0.60706394 -0.23742409 0.10332412 -0.33604643 -0.43953408 0.05936463 0.05687885 -0.28324759 0.43610390 0.13339588 -0.04992663 0.32831068 0.31365271 0.19813901 -0.18971077 -0.00379051 -0.04556819 0.16430520 -0.19941072 0.20095251 0.32085755 -0.35293488 -0.07135453
产品营销 -0.88440746 0.31193986 -1.07284809 0.46104672 -0.24334485 -0.67787474 -0.83590477 -0.00010662 0.22485934 0.62589644 -0.22117505 -0.01752248 0.37730058 -0.59723560 -0.79562883 -0.03790404 0.06746222 -0.56561003 0.45623750 0.07895846 -0.24834396 -0.15460442 0.74605751 0.31724019 0.28236664 -0.01685649 0.31344883 -0.31867691 -0.02281373 -0.14006770 0.41799315 0.28654798
止步 -0.24195621 0.64139085 0.82942424 -0.04969110 -0.04286446 0.04319515 -0.83530828 0.06506863 -0.08891880 0.38525776 0.64169271 0.01829296 0.30680177 0.83807253 0.45465668 -0.57973393 0.35466577 -0.16780379 0.29589330 -0.52250745 -0.33821437 0.18739288 0.05308337 0.03949893 -0.38736363 -0.00845518 0.16969292 -0.16323025 0.22472245 -0.29612649 -0.57127394 0.14516534
高速公路 -0.68343519 0.07783711 -1.00594897 0.33009090 1.37078654 0.14438839 -0.27555367 0.08083707 0.83371850 -0.24370888 -0.52320948 0.13114108 0.90244805 -0.04339131 0.76951773 0.12819197 -0.32518514 -0.12673426 0.15413193 -0.47665568 0.14290166 0.11719414 -0.13391043 0.33828693 0.12847569 0.30647015 0.14035278 -0.62476381 0.32865431 1.13257300 0.25704345 0.83691203
那什 0.64365154 1.11832483 0.52345898 0.34287895 0.38532865 0.02159932 0.73727214 -0.13814607 0.26810093 0.35601351 -0.16489970 0.02165616 0.09114585 -0.18372175 -0.64978532 0.44528589 -0.32858732 0.21791613 -0.17737721 0.11158127 -0.14020330 0.27293770 0.09564860 -0.15627385 0.69113354 -0.16042606 -0.39070468 0.43898286 -0.09940672 -0.22532213 0.43396852 -0.01235496
科威特人 -0.43502098 0.66116301 0.12820013 -1.59143727 -0.20497491 0.65439285 -0.40304896 -0.20875718 0.19486140 -0.95585245 0.40493829 0.23570300 -0.74754697 -0.17815122 -0.60574852 -0.74685839 1.58248945 -0.14128630 0.16114731 0.46438233 -0.13319908 -0.57833831 0.19307982 0.35196775 0.19901536 0.30387437 0.50012267 0.20376533 -0.04329143 -0.07446266 0.48621336 -0.03662571
部件包括 -0.64638380 0.83235726 -1.00830539 0.16720470 -0.06966681 -0.53469047 0.02973390 0.49813731 0.25913109 -0.33739927 -0.12298808 -0.23814842 -0.03715049 0.05154272 -0.84683976 -0.06135729 -0.26313712 -0.33756195 0.17858680 0.25020814 0.24290337 -0.18232305 -0.13350111 -0.34706422 -0.51717865 0.03968424 0.10795650 -0.10746883 -0.04890099 0.08139054 -0.34608230 -0.19412788
大脑皮层 -1.14457481 0.63272352 -0.98440513 0.08940584 -0.67239355 -0.43413898 1.41504663 0.00214364 -1.20817224 -0.46702091 0.19337045 0.68845887 -0.19707396 -0.47894968 0.68596526 0.32497907 -0.38264119 -0.52657099 -0.21647875 -0.54370804 0.67164816 0.77358515 0.60889757 -0.33823553 -0.14498839 0.14778366 0.27094119 -0.21430918 -0.90052807 -0.30783493 0.44322358 0.30026960
专程 0.71712106 -0.98456088 0.01906189 -0.51912385 0.18587003 0.06069192 0.01063422 -0.08355320 0.25510486 0.12836282 -0.82380490 -0.19404620 -0.17581042 0.22935188 -0.22023321 -0.14123739 0.88458016 -0.10967709 -0.18067765 -0.63448746 -0.05518650 0.18117189 -0.17309402 -0.80856727 -0.04465482 0.35517763 -0.05964182 -0.68002402 -0.19173038 0.02834617 -0.42875937 -0.94725979
非接触 -1.39974428 0.99787923 -1.19337537 0.37300615 -1.02121411 -0.40255193 0.01184310 0.39591926 0.26360877 -0.96461479 -0.34747753 -0.56963773 0.26089627 -0.54477110 -0.39734198 0.37532270 -0.62023776 0.14651685 0.50520537 0.43074066 0.20429056 0.24755212 0.19417325 0.68260594 -0.51303108 0.01460278 0.03175764 -0.01472023 -0.10153783 0.37375591 0.44566929 0.17037817
贝卢佐 0.61429957 0.50011296 -0.46153679 -0.40057330 -0.23221652 -0.13870257 -0.41828831 -0.07684194 -0.52424269 0.25385581 -0.04063924 -0.00824428 0.05586888 0.43144503 0.22987051 0.17511643 0.13170987 -0.21370610 -0.14255186 -0.04747221 0.14321560 0.15884368 0.00689934 0.00869690 -0.42824869 -0.45171252 -0.20848287 0.16395440 0.18891833 0.35308368 -0.53504980 0.19028655
孙宝明 0.17707086 -0.93547789 -0.32175449 1.05491349 0.58053958 0.22867555 -0.49797315 0.52779608 -0.44735746 -0.98473112 0.72107363 0.11816818 -0.27380940 0.29187544 -0.06536683 -0.16353854 0.02741263 -0.12923630 -0.23122026 0.05974111 0.03760115 -0.08856562 0.06222133 0.12477710 -0.08728974 -0.16175070 -0.00154150 -0.17144335 0.09124782 0.35755393 -0.12927446 0.12213778
罗萨 1.84103670 1.26409926 0.42611551 -0.12214006 -0.11456888 -0.47931883 0.58176899 -0.09117795 -0.63807248 -0.38164606 -0.17026154 0.39247265 -0.72351764 -0.36265991 0.42501761 0.33056401 -0.03363402 0.22650668 -0.32477541 0.37131105 0.11419817 -0.70080337 0.24668335 -0.05295642 -0.05124960 -0.42273794 -0.55938463 0.28920400 0.28318382 0.30958855 0.08245103 -0.27258265
雅戈达 2.12740737 0.65047627 0.12165610 -0.33965006 0.67393592 -0.98734657 -1.03952054 0.52524868 -0.93377607 -0.14149885 0.36890640 0.01265568 0.13916839 0.05317996 0.36463382 -0.42563338 -0.59142173 -1.09579136 -1.01199467 -0.85248894 -0.58620179 -0.23766411 -0.64676636 1.32742107 0.41343745 -1.12927389 -0.45748196 0.65032068 1.16446789 -0.17021126 -0.08087097 0.24378775
福尔克尔·芬克 0.49256156 0.76810490 0.72048091 -0.05695329 -0.01894763 -0.59318242 -0.32173479 0.37175233 -0.63731818 0.25250121 0.26514564 -0.31170837 0.84295210 -0.15701950 -0.31430166 0.23432162 -0.01605198 0.84458297 0.00869874 -0.70676754 -0.21324622 0.08635833 -0.42208286 -0.13708174 0.36125843 0.31597742 -0.37020836 0.24501343 -0.03570042 -0.04537547 0.09886519 0.31792526
黄紫 -0.56646950 -1.36119495 0.45447899 -0.25215293 0.45224383 0.04038058 0.25419216 -0.96359716 -0.35485640 0.54249493 0.01133097 -0.27428757 -0.10951690 0.18014766 0.51740264 0.20294552 -0.54804595 0.84395643 0.40247431 0.23991940 0.42414221 0.98373105 0.83923224 0.04568667 -0.04012853 -0.28926935 -0.01252593 0.42117939 -0.44260801 0.66782090 -0.54643518 0.47521389
青海湖 -0.82216511 -0.04246069 -0.39566913 0.30282758 1.08537861 1.05528882 0.12723871 -0.01822772 -0.79545327 0.36136794 -0.26826457 0.78874586 0.38872144 -0.64454883 1.13084228 -0.38317067 0.57978440 -0.56761427 -0.54883191 0.52573951 -0.20704980 0.75302544 -0.02511379 0.29766183 0.20361961 0.65108832 0.62651535 0.20970328 0.44486273 0.18858685 0.21963746 -0.00494685
马伊斯木 -0.26036526 -0.30859741 0.34810146 -0.39095561 -0.01829267 0.36436804 0.33618677 -0.05268434 -0.34830290 0.15486123 -0.26159975 -0.04437753 -0.01303632 -0.41942308 -0.23053211 0.05684692 -0.30324538 0.08246610 -0.05620047 0.02647126 0.05969041 -0.09488154 0.01830338 -0.08200627 -0.20021278 -0.14580922 -0.06767406 -0.24619323 0.28657263 -0.04011912 -0.10022330 0.35763323
料位计 -1.09129726 0.39880391 -1.40875410 0.74820737 -0.03484233 -0.59044619 0.25470715 0.02697470 0.02359560 -0.19829570 0.04482965 -0.41625917 -0.01237471 0.26484170 -0.15191355 0.27545579 -0.08527565 -0.09440367 -0.20934321 -0.09996517 0.06915529 -0.10175484 -0.42960243 -0.12861109 -0.74839570 0.21163320 -0.20157133 -0.10266969 0.26492428 0.10705292 -0.14207928 -0.16086952
刘买罗 -1.08693887 -0.66730836 0.53610475 -0.94929121 0.83168561 -0.16633115 0.46223103 0.14890565 -0.03099853 0.98829432 -0.12263564 -0.16630219 0.20331194 -0.03658964 -0.21294786 -0.78573214 -0.64590260 -0.04493660 -0.00204691 0.49238834 1.08009315 0.06029052 -0.42656950 0.40135069 0.43321868 0.08409329 -0.02855032 -0.40408777 -0.15556690 -0.28646680 -0.35568149 -0.30305794
心满意足 -0.34578503 -0.07068338 1.19140432 -0.81028021 -0.28344141 -0.09585461 -0.54679560 0.63277983 -0.23627650 0.78406641 -0.26876954 -0.00019902 -0.57705441 0.15394760 -0.38811441 0.35892592 0.41276540 0.38979988 -0.18206293 0.11683908 -0.03084326 -0.21211958 -0.58001883 -0.53305326 0.09083911 0.47993669 -0.29512572 0.66925164 -0.07735449 -0.09050817 -0.18476125 0.34742451
见义勇为 -0.12254790 -0.85596060 0.37510113 -0.20176677 0.30802335 -0.61168859 -0.21981838 -1.14404556 0.25437779 -1.04816376 0.03721613 0.66722183 -0.30833371 -0.13799644 -0.21199292 0.42402423 0.30289106 -0.61780097 0.69505933 1.11501116 -1.18714211 0.29825965 0.14829614 -0.00106215 1.03876499 -0.29399826 -0.16345031 0.77989652 -0.18833701 0.45105282 0.09651374 0.05866007
王熙 -0.14512537 -0.80749420 0.92309725 -0.12537022 -0.89386808 -0.14046261 0.30427866 -0.71944832 -0.12809853 -0.86202441 -0.15805426 -0.61185798 -0.12340265 -0.19934204 -0.28326248 0.08031000 -0.40215713 0.36511439 0.38532182 -0.21415605 0.07589120 0.58025449 -0.24440292 0.24884410 -0.21716380 -0.42775570 -0.46826493 -0.08878080 0.08000912 0.03987911 -0.19190235 0.32811025
何少华 0.53086651 -0.96964459 -0.87984853 0.58406984 0.63513926 -0.33462161 -0.79139033 0.41733949 0.11691702 -0.32453853 0.18209757 -0.49269122 -0.30190643 -0.64005135 -0.11164995 0.02911028 0.46663658 0.25294576 -0.50992659 -0.39386197 -0.37999161 -0.40152355 0.47028229 0.28501481 -0.25130027 -0.17016273 -0.23541591 -0.17469324 -0.35110682 0.22791567 0.15474793 0.45333431
棒棒糖 -1.17587233 1.50924083 -0.18986799 -0.10880132 -1.17522341 0.02781939 0.10346440 0.57216720 0.34429182 0.05327029 -0.09943269 -0.70153544 -0.68419642 0.10802451 -0.11295442 0.25173029 -0.40271811 0.30337185 -0.02337752 0.56341870 -0.17773581 -0.51834426 -0.83009716 -0.31366870 0.19160844 -0.27914887 -0.71273295 -0.06481751 -0.07431288 0.02777193 -0.27783905 -0.18478402
刘久贵 0.04455703 -1.17253764 -0.19613402 -0.51109199 0.53725054 -0.65158238 0.27648151 0.27470183 -0.29287893 0.39635483 0.29551430 -0.10641647 0.14140225 -0.68340447 -0.05515507 -0.17784387 -0.60528907 0.18654843 -0.26216077 0.38680902 0.18543281 -0.16689646 -0.11580395 -0.02420793 0.12598941 -0.17050624 -0.35669898 0.25931281 0.73236715 0.07534102 0.14112012 -0.10923577
约翰·汤普森 0.05921338 0.17718033 -0.83990133 0.43429288 -1.38412971 0.18154927 -0.69953222 -0.32807059 0.90971035 -0.41490823 -0.96849280 -0.10464972 -0.46102334 -0.38865981 -0.24731693 0.32214000 0.04112343 0.08650164 -0.63149497 -0.65863956 0.18388961 0.35962951 -0.19792575 0.68941222 -0.12130625 -0.73351968 0.17496243 0.08479390 0.52855259 -0.00555877 -0.58962055 0.21556284
巴尔博萨 0.95534762 0.91837882 0.10187354 0.34117665 -0.29525176 -0.30308571 0.58021360 0.35391659 -0.78707977 0.15218956 -0.18096205 -0.73837734 0.23676735 -1.02596749 -0.03663322 -0.41732600 0.24286427 0.60943573 -0.22232398 -0.29072915 0.13725266 0.18430978 0.28967383 0.05818916 -0.24426051 -0.74850407 -0.44119000 0.01690205 0.07531411 -0.24857650 -0.08412638 -0.23031291
归位 -0.96230743 0.02223644 -0.61154807 -0.95959741 0.17654163 -0.38520087 -0.72564682 -0.05250733 0.52670280 0.25051694 0.96402895 0.31522457 -0.07048671 0.05160354 -0.07579553 0.12933367 -0.27733717 0.15962325 0.04723623 0.22659212 -0.02095381 -0.09199057 0.07630883 0.25695406 0.15376769 -0.32712657 0.64742138 0.34521005 -0.37482637 -0.16651154 -0.60788608 -0.02915061
梁泰平 1.47480531 -1.17355968 0.43284891 0.38794726 -0.21437237 -0.07982998 0.23938081 0.19840513 0.08516284 0.60868873 0.05203098 0.43524639 -1.03127575 0.56253192 0.27868971 -0.35043410 0.09930703 0.00538610 0.25111346 0.51899738 0.12900826 0.27529463 0.07014804 -0.30191995 0.21441067 -0.54090519 -0.55547451 -0.17666418 -0.40550163 0.55788609 0.36440127 0.30176269
黄宏京 -0.32618025 -1.20064480 0.60249416 0.67930341 0.72261279 0.13664645 -0.59038421 0.04917197 -0.74664733 -0.58578701 1.07636086 -0.48658379 -0.25255181 -0.05953992 -0.38282870 0.19903078 -0.19668742 -0.02333542 0.64902514 0.02709173 -0.09935720 -0.72597273 0.15536864 -0.09112046 0.04881145 -0.20927054 0.16605339 0.12401388 0.21093537 -0.05019812 -0.06163837 -0.29262994
刘维民 0.61307747 -0.32262858 -0.33285069 0.81523885 -0.23118409 -0.22269471 0.20802541 -0.65540622 -0.80922093 -0.76703324 -0.53109215 -0.04598250 -0.06947109 0.11026570 -0.21523913 -0.15889613 -0.34694658 -0.27134104 -0.27709049 -0.31014896 0.16619372 0.34535941 -0.50324072 0.24797172 0.13345773 -0.02574842 -0.31520840 -0.27566751 0.11247165 0.23208057 -0.07828893 0.12630831
鼋 -1.06079291 -0.61070814 0.73117929 0.58316401 0.59186816 1.41026609 0.45695008 -0.68452599 0.14171507 1.32490132 -0.07620636 -0.41826529 -0.17940784 -0.15368847 1.39391896 -0.09100492 0.42642265 -0.56041440 -0.62668883 0.55344668 0.32750097 0.62930276 0.33017672 -0.25850153 -0.18710808 0.80262323 -0.03092267 0.12998234 0.27951874 -0.06460063 0.38921032 -0.55154098
巴卡约科 1.47512578 1.26007039 -0.06641902 -0.55478480 0.31510817 -0.44672032 0.62249550 0.52457791 0.08900977 -0.23496318 -0.26042365 -0.16126561 0.73852400 -0.71734170 -0.77761939 0.40292669 0.53917172 0.44816278 -0.29687500 -0.16932744 -0.04531707 0.22739839 0.38440976 0.07557913 0.78007031 -0.93468039 -0.17971839 0.01259722 -0.30472185 0.08660134 0.15099995 0.21274749
甑子 -1.62958319 -0.19325925 -0.11553970 -0.81654364 0.01473339 0.20106050 0.60832065 0.87156725 0.46046117 1.15566280 0.54416226 -0.64093703 -0.48405514 -0.04299101 -0.04006050 0.10687242 -0.10534823 0.47107103 -0.18153388 0.00729083 -0.51761569 -0.45972815 -0.48652147 0.17842871 -0.33393309 -0.30945707 0.10971610 0.27684762 0.36708391 -0.22148595 0.06508645 -0.02719705
王利明 1.11388447 -1.19737692 -0.48772294 0.52015717 -0.67458453 -1.32030552 0.72526894 -1.35752440 0.68268788 -0.09943059 1.07978849 0.10470132 -0.17585272 0.13495982 0.69383176 -0.41587244 -0.82972445 -0.87832456 -0.48604972 -0.63198751 0.23428626 -0.70777054 0.00425707 -0.51910254 0.37454892 0.85423768 -0.26602898 -0.18964512 0.05472403 0.29205698 -0.33045571 0.33806486
郑达镇 0.16250580 -0.14334384 0.01971056 -1.06032810 0.37951398 -0.66259283 -0.45679562 -0.89333863 0.40778466 -0.35136174 0.25068660 -0.27203178 -0.06962600 0.07227101 0.40733777 -0.09481834 0.30579089 0.09344164 -0.35038096 -0.24151584 0.22717311 -0.06092267 0.39326441 -0.66758253 -0.44610619 -0.31445321 0.07531256 0.31767531 -0.13719397 0.23456877 -0.14418834 -0.16207695
征稿 -0.52716933 -0.58097169 -0.46215903 0.24827399 -1.09030942 0.08798080 -1.17838046 -0.91382287 0.38918755 -0.68126481 -0.61706770 1.32191411 -0.37676748 -0.43701967 1.14683964 0.65685609 0.95744163 -0.49642999 0.34697988 0.50770659 0.12404005 -0.08367765 -0.07499889 -0.16707450 -0.24408757 -0.83542469 0.05695931 0.40788505 -0.11526431 0.10570573 -0.24126247 -0.36769797
张亚男 -0.35440686 -1.16672140 0.60773626 1.13900385 0.31771582 0.42176929 -0.15761310 0.40504389 -0.23828728 -1.06421078 -0.13715197 0.16700923 0.11807265 -0.09351325 -0.17442853 -0.42098485 -0.11757757 0.39425528 0.23501933 -0.44012232 -1.07630388 0.25191713 0.66617111 0.69781102 0.35768327 -0.36730320 -0.45961134 -0.19654215 0.52787618 0.72370961 -0.27393684 -0.03397398
泽洙 -0.05300008 1.08866960 0.47834346 0.49992561 0.46022717 0.16893411 -0.47241078 -0.37953943 0.71301658 0.18079317 1.04986069 -0.61187120 0.42862915 0.64041592 0.73428275 -0.19725857 0.28744747 0.87901200 -0.58031173 -0.23064425 0.21968544 -0.34091153 -0.40333877 -0.33587871 0.11641958 -0.61171578 0.24474660 0.23043994 -0.02832940 -0.06572528 -0.33786638 0.03269366
邮政编码 -0.69983726 -0.04723438 -0.96708852 -0.13612896 -0.21886297 -0.88834361 -0.23262711 -0.14743208 1.19915897 -0.50223227 -0.60195050 0.10300676 -0.49589980 -0.77683285 0.30179803 0.29537140 -0.69931669 0.93860974 0.34159973 0.12820578 0.85284640 -0.16443901 -0.58946021 0.00475697 0.58179192 0.31981197 -0.62461602 -0.53993303 0.30774429 -0.34838461 -0.05804014 0.51911799
胡晓琳 0.22776811 -0.41861726 0.22959771 0.15483702 0.15688491 -0.40676374 -0.36174384 -0.11544728 -0.80738200 0.07585218 -0.39590215 0.38049987 -0.13343815 0.08709184 0.09200993 0.01355769 0.16388256 -0.09646452 0.26306838 0.26360814 -0.27626911 -0.07293138 -0.20840938 -0.40901391 -0.14522978 -0.04697830 0.29728820 -0.04194809 -0.01531450 0.35017431 -0.41796543 0.14418324
克里沃舍伊 -0.56743854 0.11891225 0.23962699 -0.61168149 -0.11391788 -0.56531399 0.35908798 -0.53896028 -0.56753327 -0.35323358 -0.04254981 0.07599030 -0.30505749 -0.03385799 -0.11237667 -0.02026134 -0.08437187 -0.05747917 0.11178500 0.31143028 -0.25430505 0.06919454 -0.08018898 -0.34080563 0.14670740 -0.04539770 0.12328168 -0.16356023 0.25797489 -0.02387097 -0.56680054 0.34398667
刁家运 1.12052477 -1.25705902 -0.25250480 0.63718861 0.25717310 -0.45346352 0.21853723 0.14649566 0.08508838 0.18494569 0.55581389 0.48262976 0.14780999 -0.42068446 0.62175068 0.13138329 -0.25184712 -0.83420170 0.11133197 -0.36244757 -0.29671352 -0.32667901 -0.17346044 -0.27462526 0.32386465 0.54820565 0.19409944 0.12574361 -0.05367076 0.35316835 -0.13725696 -0.03851379
邹建武 0.28173630 -0.79680258 -0.03902261 1.11912779 0.03976655 0.59401166 -0.72159829 0.32912945 -0.03860375 -0.79651115 0.09007279 -0.06709975 -0.41149158 -0.04350116 0.06169570 0.11849705 0.02244264 -0.22425436 -0.09320773 -0.30005072 -0.23559900 -0.53315766 0.15243588 -0.19858424 -0.07724302 -0.15616395 -0.01088038 -0.30089520 -0.20180405 0.11920590 0.16954229 -0.10526544
孙喜忱 -0.13886289 -1.15971646 0.42172033 0.97671471 0.67284840 0.06396086 -0.71241918 0.32230873 -0.07256852 -0.84534580 0.72992971 -0.25387910 0.01607736 0.65668993 -0.35826340 0.61760817 0.29401517 -0.07845851 -0.08053244 0.29700788 -0.68328538 0.23590735 -0.08301036 0.34146655 0.11772415 -0.09611880 -0.36693540 -0.07783763 -0.05013852 -0.09947349 0.07687325 0.37671709
坯料 -1.88041700 1.09597592 -1.15813055 0.05981656 -0.31711984 -0.41387796 0.13827826 0.00980231 0.44926301 0.94454981 0.16742367 -0.38847914 0.02341553 0.92135460 -0.09099819 0.13845908 0.65750508 0.46745641 -0.56176831 0.13238913 0.15948407 -1.22186888 -0.20329278 -0.10621212 0.21938135 -0.30936881 0.55534843 -0.42777520 0.07526516 -0.56589032 -0.27759206 -0.12264646
九十点 -0.66339874 0.03811030 0.57332404 -1.71611856 0.43872317 -0.32481271 -0.14498132 1.65256878 0.18952875 0.09546661 -0.30071814 0.72834112 -0.46187375 0.91602177 0.36384878 -0.00619060 0.42258818 0.62251485 -0.51723434 -1.40526875 0.04259171 0.40933835 0.07238943 -0.57343893 -0.60758236 -0.41629545 -0.63598810 -0.54720847 0.31403460 -0.80148994 0.55520774 -0.29965173
路径 -1.21375648 0.54231962 -0.51474487 0.01467047 0.09286992 0.15994231 -0.05952405 0.44689337 -0.18797320 -0.58841707 -0.86266273 0.79722937 0.23273588 -0.54416376 0.84989352 0.32953425 -0.47054119 -0.21309872 0.37264221 -0.00339734 -0.13991611 0.62180165 -0.01162697 0.07597165 -0.00613044 0.44142188 0.70825291 -0.36920632 -0.22005781 0.20196455 -0.16472143 -0.19143794
纽伦堡 0.44999330 1.38093475 0.51219260 0.04501835 0.36885549 -0.21898710 -0.71287424 -0.57605774 -0.16238652 -0.69282780 0.01431061 -0.10157155 0.46153248 0.52895580 -0.00828391 0.82834069 -0.15980156 -0.07919320 -0.58463270 -1.05652973 -0.60344441 0.00764444 -0.55474913 0.43207896 0.48506139 0.17859507 -0.55230912 0.22123268 0.26911840 -0.63360314 0.10387308 -0.16977076
郑荣 -0.80734102 -0.79333001 0.45529997 0.55612411 -0.17019060 -0.49804839 -0.39579172 0.14839178 0.32386955 0.72075070 0.19580179 -1.02357946 0.07777797 0.00981563 0.26803629 0.82586125 1.14832511 -0.90097050 1.14942148 0.63306069 0.48025136 0.31071123 -0.39734768 0.12219485 -0.07394065 -0.69962113 -0.62421049 -0.65003574 0.11196949 -0.33154075 0.10471963 0.50838617
失意 -0.07979651 0.44085029 1.60582284 -0.28731231 -0.24801027 0.31593830 -0.88262886 0.11617207 -0.52012163 -0.24431244 0.27016414 0.06155549 0.23716762 0.53185299 0.16628442 0.55157098 0.43982588 -0.21440492 -0.16549062 -0.00830808 -0.07625199 -0.17332346 -0.58120551 0.22482560 -0.37023594 0.34690960 0.14353157 -0.63476203 -0.34763970 -0.07083393 0.01171429 0.16544122
李宝元 -0.01725439 -1.41080776 0.59149462 0.47679194 0.18875460 -0.32954830 0.35316763 0.33850267 -0.37945677 0.62488536 0.17010670 0.03182434 -0.34068299 -0.31226249 -0.68981289 0.01945725 -0.32799809 -0.17275944 0.24500512 0.36968338 0.21706316 -0.18744426 0.51607186 -0.27959109 -0.10768976 0.64511865 0.01384994 -0.29586882 0.13404996 -0.15627737 0.01708057 0.28793084
卞卓丹 0.86218857 -0.13112724 0.11006076 0.81226839 0.87376092 0.74294574 -0.80109345 0.91337848 -0.59855111 -0.65621766 1.32784536 0.32983786 -0.86729142 -0.54257708 -1.26515278 -0.34328357 0.72840931 0.83537872 -0.82812704 0.22256502 1.05400723 -0.31386769 0.52285318 -0.28485752 0.74453146 -0.83415176 0.98370123 0.65205914 0.34361680 -1.31791618 -0.43373150 0.02249107
汤米·莫 0.76144638 1.65478781 1.42347649 0.94513013 0.72452172 -0.15281948 -0.15429154 -0.22500176 -0.64803782 0.26810728 -0.23876015 0.73295943 -0.66075085 0.59869699 0.79445460 -0.43176372 -0.07298287 -0.04573184 0.33777325 0.94003827 0.14893958 0.55556237 -0.42669055 0.52488777 0.61314283 0.12797760 -0.19752586 0.42286119 -0.18050628 0.25530493 0.05548800 -0.39550676
集散 -1.36092741 0.38385049 -1.32401321 0.08157153 1.01879300 0.37726518 -0.40281169 0.31528691 0.66470934 0.38614697 -0.51895426 -0.19042337 -0.05692830 -0.80764931 -0.17754906 -0.16473946 0.53446934 -0.50011844 0.66326059 -0.10984832 -0.16466821 -0.48931018 0.53189829 -0.83055661 -0.26332336 -0.30095055 -0.19171626 -0.80761593 -0.13482860 -0.25826921 0.54342397 0.85739939
